{"learner":{"attributes":{"scikit_learn":"{\"_estimator_type\": \"classifier\"}"},"feature_names":[],"feature_types":[],"gradient_booster":{"model":{"cats":{"enc":[],"feature_segments":[],"sorted_idx":[]},"gbtree_model_param":{"num_parallel_tree":"1","num_trees":"200"},"iteration_indptr":[0,1,2,3,4,5,6,7,8,9,10,11,12,13,14,15,16,17,18,19,20,21,22,23,24,25,26,27,28,29,30,31,32,33,34,35,36,37,38,39,40,41,42,43,44,45,46,47,48,49,50,51,52,53,54,55,56,57,58,59,60,61,62,63,64,65,66,67,68,69,70,71,72,73,74,75,76,77,78,79,80,81,82,83,84,85,86,87,88,89,90,91,92,93,94,95,96,97,98,99,100,101,102,103,104,105,106,107,108,109,110,111,112,113,114,115,116,117,118,119,120,121,122,123,124,125,126,127,128,129,130,131,132,133,134,135,136,137,138,139,140,141,142,143,144,145,146,147,148,149,150,151,152,153,154,155,156,157,158,159,160,161,162,163,164,165,166,167,168,169,170,171,172,173,174,175,176,177,178,179,180,181,182,183,184,185,186,187,188,189,190,191,192,193,194,195,196,197,198,199,200],"tree_info":[0,0,0,0,0,0,0,0,0,0,0,0,0,0,0,0,0,0,0,0,0,0,0,0,0,0,0,0,0,0,0,0,0,0,0,0,0,0,0,0,0,0,0,0,0,0,0,0,0,0,0,0,0,0,0,0,0,0,0,0,0,0,0,0,0,0,0,0,0,0,0,0,0,0,0,0,0,0,0,0,0,0,0,0,0,0,0,0,0,0,0,0,0,0,0,0,0,0,0,0,0,0,0,0,0,0,0,0,0,0,0,0,0,0,0,0,0,0,0,0,0,0,0,0,0,0,0,0,0,0,0,0,0,0,0,0,0,0,0,0,0,0,0,0,0,0,0,0,0,0,0,0,0,0,0,0,0,0,0,0,0,0,0,0,0,0,0,0,0,0,0,0,0,0,0,0,0,0,0,0,0,0,0,0,0,0,0,0,0,0,0,0,0,0,0,0,0,0,0,0],"trees":[{"base_weights":[1.9825144E-2,-1.0201211E0,1.829798E0,-1.0867751E0,2.177858E-1,7.694959E-1,2.1954012E-1,-1.2250779E-1,-3.706191E-2,3.938115E-2,-5.6258817E-3,-9.5639944E-2,1.16034426E-1],"categories":[],"categories_nodes":[],"categories_segments":[],"categories_sizes":[],"default_left":[0,0,0,0,0,0,0,0,0,0,0,0,0],"id":0,"left_children":[1,3,5,7,9,11,-1,-1,-1,-1,-1,-1,-1],"loss_changes":[1.5140276E2,4.452755E0,9.687202E0,4.3648796E0,1.8827808E-1,7.2242484E0,0E0,0E0,0E0,0E0,0E0,0E0,0E0],"parents":[2147483647,0,0,1,1,2,2,3,3,4,4,5,5],"right_children":[2,4,6,8,10,12,-1,-1,-1,-1,-1,-1,-1],"split_conditions":[1.5280947E-1,1.5500178E0,5.304013E-1,-1.08617984E-1,-6.4457744E-1,-1.3423502E0,2.1954012E-1,-1.2250779E-1,-3.706191E-2,3.938115E-2,-5.6258817E-3,-9.5639944E-2,1.16034426E-1],"split_indices":[1,3,1,1,1,2,0,0,0,0,0,0,0],"split_type":[0,0,0,0,0,0,0,0,0,0,0,0,0],"sum_hessian":[7.8444374E1,5.0096874E1,2.83475E1,4.7653126E1,2.4437501E0,8.064375E0,2.0283125E1,3.9344376E1,8.30875E0,1.2218751E0,1.2218751E0,1.2218751E0,6.8425E0],"tree_param":{"num_deleted":"0","num_feature":"4","num_nodes":"13","size_leaf_vector":"1"}},{"base_weights":[-1.0733666E-2,-7.998883E-1,1.7776879E0,-8.9588237E-1,2.7828482E-1,7.8897905E-1,1.977707E-1,-9.5261164E-2,5.818966E-2,1.0329374E-1,-3.9943524E-2,1.691231E-2,1.0701431E-1],"categories":[],"categories_nodes":[],"categories_segments":[],"categories_sizes":[],"default_left":[0,0,0,0,0,0,0,0,0,0,0,0,0],"id":1,"left_children":[1,3,5,7,9,11,-1,-1,-1,-1,-1,-1,-1],"loss_changes":[1.1018767E2,5.854843E0,3.1670609E0,4.743454E0,3.0674422E0,8.099797E-1,0E0,0E0,0E0,0E0,0E0,0E0,0E0],"parents":[2147483647,0,0,1,1,2,2,3,3,4,4,5,5],"right_children":[2,4,6,8,10,12,-1,-1,-1,-1,-1,-1,-1],"split_conditions":[3.441627E-1,1.5280947E-1,5.6040007E-1,1.6248494E0,-4.636067E-1,-2.4237026E-2,1.977707E-1,-9.5261164E-2,5.818966E-2,1.0329374E-1,-3.9943524E-2,1.691231E-2,1.0701431E-1],"split_indices":[1,1,1,3,0,0,0,0,0,0,0,0,0],"split_type":[0,0,0,0,0,0,0,0,0,0,0,0,0],"sum_hessian":[7.6065506E1,5.3160686E1,2.2904818E1,4.8969788E1,4.1909003E0,4.6860166E0,1.8218801E1,4.750166E1,1.468127E0,1.7349116E0,2.455989E0,1.962028E0,2.7239885E0],"tree_param":{"num_deleted":"0","num_feature":"4","num_nodes":"13","size_leaf_vector":"1"}},{"base_weights":[-4.521553E-2,-8.7142056E-1,1.3822066E0,-1.0172962E0,-2.402649E-1,5.6019956E-1,1.78738E-1,-1.16900876E-1,-7.6438345E-2,-4.8924424E-2,9.014749E-2,-9.893789E-2,9.104032E-2],"categories":[],"categories_nodes":[],"categories_segments":[],"categories_sizes":[],"default_left":[0,0,0,0,0,0,0,0,0,0,0,0,0],"id":2,"left_children":[1,3,5,7,9,11,-1,-1,-1,-1,-1,-1,-1],"loss_changes":[8.9525085E1,4.1793327E0,8.271656E0,5.9204865E-1,3.3773763E0,6.6796036E0,0E0,0E0,0E0,0E0,0E0,0E0,0E0],"parents":[2147483647,0,0,1,1,2,2,3,3,4,4,5,5],"right_children":[2,4,6,8,10,12,-1,-1,-1,-1,-1,-1,-1],"split_conditions":[1.6956548E-1,-9.465555E-2,5.7844555E-1,-6.501911E-1,8.6549443E-1,-1.3423502E0,1.78738E-1,-1.16900876E-1,-7.6438345E-2,-4.8924424E-2,9.014749E-2,-9.893789E-2,9.104032E-2],"split_indices":[1,1,1,1,0,2,0,0,0,0,0,0,0],"split_type":[0,0,0,0,0,0,0,0,0,0,0,0,0],"sum_hessian":[7.388965E1,4.7047585E1,2.684206E1,3.771818E1,9.329402E0,9.648998E0,1.7193062E1,2.1311855E1,1.6406326E1,8.1283455E0,1.201057E0,1.4422387E0,8.206759E0],"tree_param":{"num_deleted":"0","num_feature":"4","num_nodes":"13","size_leaf_vector":"1"}},{"base_weights":[-3.5134148E-2,-8.86789E-1,1.2236869E0,-9.2980987E-1,4.0195867E-2,3.8785836E-1,1.576024E-1,-9.997597E-2,-2.332173E-2,-9.5133536E-2,6.922327E-2],"categories":[],"categories_nodes":[],"categories_segments":[],"categories_sizes":[],"default_left":[0,0,0,0,0,0,0,0,0,0,0],"id":3,"left_children":[1,3,5,7,-1,9,-1,-1,-1,-1,-1],"loss_changes":[8.467247E1,2.984253E0,8.778027E0,2.0016975E0,0E0,5.053031E0,0E0,0E0,0E0,0E0,0E0],"parents":[2147483647,0,0,1,1,2,2,3,3,5,5],"right_children":[2,4,6,8,-1,10,-1,-1,-1,-1,-1],"split_conditions":[3.3902414E-2,1.6248494E0,4.6778968E-1,-6.297416E-2,4.0195867E-2,-1.4425629E0,1.576024E-1,-9.997597E-2,-2.332173E-2,-9.5133536E-2,6.922327E-2],"split_indices":[1,3,1,1,0,2,0,0,0,0,0],"split_type":[0,0,0,0,0,0,0,0,0,0,0],"sum_hessian":[7.696735E1,4.6084465E1,3.0882883E1,4.486529E1,1.219172E0,9.780941E0,2.1101942E1,4.0375668E1,4.489624E0,1.4177121E0,8.363229E0],"tree_param":{"num_deleted":"0","num_feature":"4","num_nodes":"11","size_leaf_vector":"1"}},{"base_weights":[-6.0008068E-2,-7.241923E-1,-1.0857551E-2,-1.0623628E-1,-1.24613745E-2,8.66023E-1,-5.5827577E-2,2.5494127E-2,1.0603382E-1,-9.541207E-3,7.041883E-2],"categories":[],"categories_nodes":[],"categories_segments":[],"categories_sizes":[],"default_left":[0,0,0,0,0,0,0,0,0,0,0],"id":4,"left_children":[1,3,5,-1,-1,7,9,-1,-1,-1,-1],"loss_changes":[2.5081153E0,9.412582E-1,2.9181373E0,0E0,0E0,1.5842271E-1,2.17809E0,0E0,0E0,0E0,0E0],"parents":[2147483647,0,0,1,1,2,2,5,5,6,6],"right_children":[2,4,6,-1,-1,8,10,-1,-1,-1,-1],"split_conditions":[-1.4855626E0,5.0348246E-1,-1.3408642E0,-1.0623628E-1,-1.24613745E-2,-4.3794104E-1,2.0541801E0,2.5494127E-2,1.0603382E-1,-9.541207E-3,7.041883E-2],"split_indices":[0,2,0,0,0,2,0,0,0,0,0],"split_type":[0,0,0,0,0,0,0,0,0,0,0],"sum_hessian":[7.607086E1,4.2951503E0,7.177571E1,2.2527306E0,2.04242E0,2.6107295E0,6.916498E1,1.1876885E0,1.4230411E0,6.657211E1,2.592866E0],"tree_param":{"num_deleted":"0","num_feature":"4","num_nodes":"11","size_leaf_vector":"1"}},{"base_weights":[5.28792E-2,-7.1601605E-1,1.1485536E0,-7.71436E-1,5.7528913E-2,4.471886E-1,1.4897367E-1,-3.5264034E-2,-8.8114314E-2,1.9888751E-2,1.0069122E-1],"categories":[],"categories_nodes":[],"categories_segments":[],"categories_sizes":[],"default_left":[0,0,0,0,0,0,0,0,0,0,0],"id":5,"left_children":[1,3,5,7,-1,9,-1,-1,-1,-1,-1],"loss_changes":[6.604544E1,3.7436218E0,7.0653305E0,1.7402458E0,0E0,1.4678576E0,0E0,0E0,0E0,0E0,0E0],"parents":[2147483647,0,0,1,1,2,2,3,3,5,5],"right_children":[2,4,6,8,-1,10,-1,-1,-1,-1,-1],"split_conditions":[3.3902414E-2,1.6248494E0,4.906968E-1,-6.5902364E-1,5.7528913E-2,7.0187044E-1,1.4897367E-1,-3.5264034E-2,-8.8114314E-2,1.9888751E-2,1.0069122E-1],"split_indices":[1,3,1,0,0,3,0,0,0,0,0],"split_type":[0,0,0,0,0,0,0,0,0,0,0],"sum_hessian":[7.6419876E1,4.511012E1,3.1309757E1,4.363979E1,1.4703292E0,1.1002592E1,2.0307165E1,9.93362E0,3.370617E1,8.56041E0,2.442183E0],"tree_param":{"num_deleted":"0","num_feature":"4","num_nodes":"11","size_leaf_vector":"1"}},{"base_weights":[3.7460074E-2,7.072727E-1,-3.9691623E-2,-1.6867101E-2,1.1172568E-1,-2.8587058E-1,1.0630382E-1,4.5491796E-2,-4.9193844E-2,3.6414657E-3,-6.892475E-2,2.2140503E-2,-6.964772E-2],"categories":[],"categories_nodes":[],"categories_segments":[],"categories_sizes":[],"default_left":[0,0,0,0,0,0,0,0,0,0,0,0,0],"id":6,"left_children":[1,3,5,7,-1,9,11,-1,-1,-1,-1,-1,-1],"loss_changes":[3.6962564E0,2.2112637E0,2.352104E0,1.0429237E0,0E0,3.186633E0,3.9684162E0,0E0,0E0,0E0,0E0,0E0,0E0],"parents":[2147483647,0,0,1,1,2,2,3,3,5,5,6,6],"right_children":[2,4,6,8,-1,10,12,-1,-1,-1,-1,-1,-1],"split_conditions":[-1.4106259E0,-1.5721405E0,-3.0782166E-1,-1.1549385E-2,1.1172568E-1,-7.329394E-1,1.2457933E0,4.5491796E-2,-4.9193844E-2,3.6414657E-3,-6.892475E-2,2.2140503E-2,-6.964772E-2],"split_indices":[3,3,3,0,0,3,2,0,0,0,0,0,0],"split_type":[0,0,0,0,0,0,0,0,0,0,0,0,0],"sum_hessian":[6.998265E1,6.3847218E0,6.359793E1,2.6546931E0,3.7300286E0,2.3319046E1,4.0278885E1,1.353238E0,1.3014551E0,1.346815E1,9.850897E0,3.5861355E1,4.41753E0],"tree_param":{"num_deleted":"0","num_feature":"4","num_nodes":"13","size_leaf_vector":"1"}},{"base_weights":[-7.616159E-3,5.586298E-1,-6.6425234E-2,-3.148605E-1,1.0767518E0,-8.1596214E-1,-1.755625E-2,-8.9182885E-4,-4.6203043E-2,1.3145459E-1,2.7347619E-2,-1.0183153E-1,-1.4477119E-2,4.4785757E-3,-3.9193794E-2],"categories":[],"categories_nodes":[],"categories_segments":[],"categories_sizes":[],"default_left":[0,0,0,0,0,0,0,0,0,0,0,0,0,0,0],"id":7,"left_children":[1,3,5,7,9,11,13,-1,-1,-1,-1,-1,-1,-1,-1],"loss_changes":[2.496691E0,3.5321786E0,2.4693098E0,1.4899501E-1,5.2965164E-1,4.1326404E-1,1.527089E0,0E0,0E0,0E0,0E0,0E0,0E0,0E0,0E0],"parents":[2147483647,0,0,1,1,2,2,3,3,4,4,5,5,6,6],"right_children":[2,4,6,8,10,12,14,-1,-1,-1,-1,-1,-1,-1,-1],"split_conditions":[-1.4106259E0,-1.5549775E0,-1.542442E0,-2.935677E-1,6.2193495E-1,1.0127603E0,1.3030652E0,-8.9182885E-4,-4.6203043E-2,1.3145459E-1,2.7347619E-2,-1.0183153E-1,-1.4477119E-2,4.4785757E-3,-3.9193794E-2],"split_indices":[3,3,2,0,0,3,2,0,0,0,0,0,0,0,0],"split_type":[0,0,0,0,0,0,0,0,0,0,0,0,0,0,0],"sum_hessian":[7.286048E1,6.055526E0,6.680496E1,2.400642E0,3.654884E0,3.12823E0,6.3676727E1,1.1242039E0,1.276438E0,2.3289595E0,1.3259246E0,2.0062127E0,1.1220174E0,5.534162E1,8.335108E0],"tree_param":{"num_deleted":"0","num_feature":"4","num_nodes":"15","size_leaf_vector":"1"}},{"base_weights":[3.825168E-2,-5.4968727E-1,7.616767E-2,-9.24551E-3,-6.6432856E-2,5.327307E-3,4.2203507E-1,1.1631677E-2,-5.000579E-2,1.2737826E-1,1.3052312E-2],"categories":[],"categories_nodes":[],"categories_segments":[],"categories_sizes":[],"default_left":[0,0,0,0,0,0,0,0,0,0,0],"id":8,"left_children":[1,3,5,-1,-1,7,9,-1,-1,-1,-1],"loss_changes":[1.6626723E0,1.7584741E-1,1.6927676E0,0E0,0E0,3.335788E0,2.7506814E0,0E0,0E0,0E0,0E0],"parents":[2147483647,0,0,1,1,2,2,5,5,6,6],"right_children":[2,4,6,-1,-1,8,10,-1,-1,-1,-1],"split_conditions":[-1.542442E0,-1.0454078E0,9.79056E-1,-9.24551E-3,-6.6432856E-2,5.270829E-1,1.076736E0,1.1631677E-2,-5.000579E-2,1.2737826E-1,1.3052312E-2],"split_indices":[2,3,0,0,0,0,0,0,0,0,0],"split_type":[0,0,0,0,0,0,0,0,0,0,0],"sum_hessian":[7.170693E1,3.5264857E0,6.818044E1,1.069078E0,2.457408E0,5.7432545E1,1.07479E1,4.7721992E1,9.710554E0,1.8813498E0,8.86655E0],"tree_param":{"num_deleted":"0","num_feature":"4","num_nodes":"11","size_leaf_vector":"1"}},{"base_weights":[-7.5714484E-2,-1.80396E-1,2.0924725E-1,-8.234588E-2,-1.07898735E-1,5.9334576E-1,-1.5263942E-2,-5.5671153E-3,-7.146807E-2,9.542962E-3,1.01886764E-1,4.5215122E-2,-5.038473E-2],"categories":[],"categories_nodes":[],"categories_segments":[],"categories_sizes":[],"default_left":[0,0,0,0,0,0,0,0,0,0,0,0,0],"id":9,"left_children":[1,3,5,-1,7,9,11,-1,-1,-1,-1,-1,-1],"loss_changes":[2.241563E0,2.4550986E0,1.7605808E0,0E0,1.5507619E0,1.4955802E0,3.3778498E0,0E0,0E0,0E0,0E0,0E0,0E0],"parents":[2147483647,0,0,1,1,2,2,4,4,5,5,6,6],"right_children":[2,4,6,-1,8,10,12,-1,-1,-1,-1,-1,-1],"split_conditions":[6.892279E-1,-1.1345474E0,-6.585527E-1,-8.234588E-2,5.640021E-1,-1.1253724E0,1.1932544E0,-5.5671153E-3,-7.146807E-2,9.542962E-3,1.01886764E-1,4.5215122E-2,-5.038473E-2],"split_indices":[2,0,3,0,2,3,2,0,0,0,0,0,0],"split_type":[0,0,0,0,0,0,0,0,0,0,0,0,0],"sum_hessian":[7.287861E1,5.356741E1,1.9311197E1,4.3777313E0,4.918968E1,6.517716E0,1.2793481E1,4.6296543E1,2.8931372E0,3.5675185E0,2.9501975E0,6.5764894E0,6.2169914E0],"tree_param":{"num_deleted":"0","num_feature":"4","num_nodes":"13","size_leaf_vector":"1"}},{"base_weights":[-1.8076288E-2,-6.234968E-1,1.3823776E-1,-7.8357965E-1,3.8688462E-2,-8.5857145E-2,3.7872598E-2,-2.1038255E-2,9.119155E-2],"categories":[],"categories_nodes":[],"categories_segments":[],"categories_sizes":[],"default_left":[0,0,0,0,0,0,0,0,0],"id":10,"left_children":[1,3,-1,5,7,-1,-1,-1,-1],"loss_changes":[6.517326E1,5.7170963E0,0E0,4.0949383E0,2.6706722E0,0E0,0E0,0E0,0E0],"parents":[2147483647,0,0,1,1,3,3,4,4],"right_children":[2,4,-1,6,8,-1,-1,-1,-1],"split_conditions":[4.6778968E-1,1.5944874E-2,1.3823776E-1,1.5500178E0,1.0620245E0,-8.5857145E-2,3.7872598E-2,-2.1038255E-2,9.119155E-2],"split_indices":[1,1,0,3,3,0,0,0,0],"split_type":[0,0,0,0,0,0,0,0,0],"sum_hessian":[7.485108E1,5.264659E1,2.2204493E1,4.2249477E1,1.0397112E1,3.9934246E1,2.3152328E0,8.6803E0,1.7168117E0],"tree_param":{"num_deleted":"0","num_feature":"4","num_nodes":"9","size_leaf_vector":"1"}},{"base_weights":[-3.165873E-2,-4.980356E-1,1.3870315E-1,-7.8026444E-1,1.816127E-1,2.8639555E-2,-8.1849284E-2,-7.547293E-2,3.7517842E-2],"categories":[],"categories_nodes":[],"categories_segments":[],"categories_sizes":[],"default_left":[0,0,0,0,0,0,0,0,0],"id":11,"left_children":[1,3,-1,5,7,-1,-1,-1,-1],"loss_changes":[4.5603146E1,1.0081977E1,0E0,1.7352142E0,3.1860414E0,0E0,0E0,0E0,0E0],"parents":[2147483647,0,0,1,1,3,3,4,4],"right_children":[2,4,-1,6,8,-1,-1,-1,-1],"split_conditions":[5.7844555E-1,-6.297416E-2,1.3870315E-1,-2.1056154E0,-1.3423502E0,2.8639555E-2,-8.1849284E-2,-7.547293E-2,3.7517842E-2],"split_indices":[1,1,0,0,2,0,0,0,0],"split_type":[0,0,0,0,0,0,0,0,0],"sum_hessian":[6.6879906E1,5.0821808E1,1.6058096E1,3.5805344E1,1.5016465E1,1.0142335E0,3.479111E1,2.0758414E0,1.2940623E1],"tree_param":{"num_deleted":"0","num_feature":"4","num_nodes":"9","size_leaf_vector":"1"}},{"base_weights":[3.9941E-2,-6.830694E-1,1.0718739E0,1.05479725E-1,-7.5233907E-1,5.95581E-1,1.2718192E-1,-6.0409095E-2,1.057349E-1,-8.286706E-2,1.45662045E-2,1.1477827E-1,1.5079709E-2],"categories":[],"categories_nodes":[],"categories_segments":[],"categories_sizes":[],"default_left":[0,0,0,0,0,0,0,0,0,0,0,0,0],"id":12,"left_children":[1,3,5,7,9,11,-1,-1,-1,-1,-1,-1,-1],"loss_changes":[5.1126637E1,2.282156E0,1.9296417E0,3.4305997E0,2.670208E0,2.3379242E0,0E0,0E0,0E0,0E0,0E0,0E0,0E0],"parents":[2147483647,0,0,1,1,2,2,3,3,4,4,5,5],"right_children":[2,4,6,8,10,12,-1,-1,-1,-1,-1,-1,-1],"split_conditions":[3.3902414E-2,-1.4359995E0,4.6778968E-1,-1.5655935E0,1.5500178E0,-4.636067E-1,1.2718192E-1,-6.0409095E-2,1.057349E-1,-8.286706E-2,1.45662045E-2,1.1477827E-1,1.5079709E-2],"split_indices":[1,3,1,3,3,0,0,0,0,0,0,0,0],"split_type":[0,0,0,0,0,0,0,0,0,0,0,0,0],"sum_hessian":[6.6544014E1,3.9327667E1,2.7216352E1,3.1335332E0,3.6194134E1,9.223535E0,1.7992817E1,2.004582E0,1.1289514E0,3.3429756E1,2.764377E0,3.4097598E0,5.813775E0],"tree_param":{"num_deleted":"0","num_feature":"4","num_nodes":"13","size_leaf_vector":"1"}},{"base_weights":[-1.4540069E-4,-6.6863054E-1,8.9629114E-1,-1.1150843E-1,-4.7408745E-1,-3.9655274E-1,1.0316674E0,-1.3926799E-2,-6.9278486E-2,-8.549639E-2,3.2403886E-2,6.329133E-2,1.2690179E-1],"categories":[],"categories_nodes":[],"categories_segments":[],"categories_sizes":[],"default_left":[0,0,0,0,0,0,0,0,0,0,0,0,0],"id":13,"left_children":[1,3,5,-1,7,9,11,-1,-1,-1,-1,-1,-1],"loss_changes":[3.8966736E1,2.7065468E0,5.2706223E0,0E0,1.9305906E0,1.3853614E0,1.6028366E0,0E0,0E0,0E0,0E0,0E0,0E0],"parents":[2147483647,0,0,1,1,2,2,4,4,5,5,6,6],"right_children":[2,4,6,-1,8,10,12,-1,-1,-1,-1,-1,-1],"split_conditions":[3.3902414E-2,-8.728497E-1,-1.4426126E0,-1.1150843E-1,-4.2378297E-1,4.6778968E-1,5.7844555E-1,-1.3926799E-2,-6.9278486E-2,-8.549639E-2,3.2403886E-2,6.329133E-2,1.2690179E-1],"split_indices":[1,1,2,0,2,1,1,0,0,0,0,0,0],"split_type":[0,0,0,0,0,0,0,0,0,0,0,0,0],"sum_hessian":[6.3025295E1,3.6248447E1,2.6776846E1,9.565328E0,2.668312E1,2.3552184E0,2.4421627E1,1.1189352E1,1.5493769E1,1.3255087E0,1.0297096E0,1.0480589E1,1.3941038E1],"tree_param":{"num_deleted":"0","num_feature":"4","num_nodes":"13","size_leaf_vector":"1"}},{"base_weights":[1.8583957E-2,4.9113956E-1,-3.9163776E-2,-2.5773603E-2,6.904987E-1,-2.6514485E-1,1.0281172E-1,1.0682428E-1,3.4992844E-2,-3.491647E-2,6.920392E-2,1.1792779E-1,7.1074505E-4],"categories":[],"categories_nodes":[],"categories_segments":[],"categories_sizes":[],"default_left":[0,0,0,0,0,0,0,0,0,0,0,0,0],"id":14,"left_children":[1,3,5,-1,7,9,11,-1,-1,-1,-1,-1,-1],"loss_changes":[1.6971462E0,1.1886183E0,1.8148781E0,0E0,3.4894538E-1,1.9930615E0,3.5911586E0,0E0,0E0,0E0,0E0,0E0,0E0],"parents":[2147483647,0,0,1,1,2,2,4,4,5,5,6,6],"right_children":[2,4,6,-1,8,10,12,-1,-1,-1,-1,-1,-1],"split_conditions":[-1.4106259E0,-1.610632E0,-2.559239E-1,-2.5773603E-2,-7.8178024E-1,1.5704137E0,-1.2763627E-1,1.0682428E-1,3.4992844E-2,-3.491647E-2,6.920392E-2,1.1792779E-1,7.1074505E-4],"split_indices":[3,3,3,0,0,2,3,0,0,0,0,0,0],"split_type":[0,0,0,0,0,0,0,0,0,0,0,0,0],"sum_hessian":[6.048669E1,5.7694855E0,5.4717205E1,1.151427E0,4.6180587E0,2.0777813E1,3.3939392E1,1.176506E0,3.4415526E0,1.9685106E1,1.0927063E0,1.8466347E0,3.209276E1],"tree_param":{"num_deleted":"0","num_feature":"4","num_nodes":"13","size_leaf_vector":"1"}},{"base_weights":[9.902369E-2,-4.1439456E-1,1.8161707E-1,-7.5038725E-1,7.077329E-3,6.537794E-1,8.275017E-2,-1.0119002E-1,-2.2163352E-2,3.583054E-2,-4.7313605E-2,3.7206467E-2,1.1684009E-1,6.826094E-2,1.9624538E-3],"categories":[],"categories_nodes":[],"categories_segments":[],"categories_sizes":[],"default_left":[0,0,0,0,0,0,0,0,0,0,0,0,0,0,0],"id":15,"left_children":[1,3,5,7,9,11,13,-1,-1,-1,-1,-1,-1,-1,-1],"loss_changes":[2.7454534E0,1.2841684E0,2.5104795E0,4.7184777E-1,1.0122547E0,9.232702E-1,1.7500913E0,0E0,0E0,0E0,0E0,0E0,0E0,0E0,0E0],"parents":[2147483647,0,0,1,1,2,2,3,3,4,4,5,5,6,6],"right_children":[2,4,6,8,10,12,14,-1,-1,-1,-1,-1,-1,-1,-1],"split_conditions":[-1.1454606E0,-4.111784E-2,-7.8302604E-1,-1.3862389E0,-1.3942753E0,9.100263E-1,-1.4670359E0,-1.0119002E-1,-2.2163352E-2,3.583054E-2,-4.7313605E-2,3.7206467E-2,1.1684009E-1,6.826094E-2,1.9624538E-3],"split_indices":[2,0,2,2,2,3,3,0,0,0,0,0,0,0,0],"split_type":[0,0,0,0,0,0,0,0,0,0,0,0,0,0,0],"sum_hessian":[6.196889E1,8.030747E0,5.3938145E1,4.0342727E0,3.9964745E0,8.36697E0,4.5571175E1,2.0878909E0,1.946382E0,2.4548554E0,1.5416192E0,6.520498E0,1.8464719E0,3.4046414E0,4.2166534E1],"tree_param":{"num_deleted":"0","num_feature":"4","num_nodes":"15","size_leaf_vector":"1"}},{"base_weights":[3.198933E-2,-5.6440866E-1,8.496898E-1,-1.0300373E0,-2.1103506E-1,3.391193E-1,1.2310147E-1,-1.1837745E-1,-5.469961E-2,7.142546E-3,-5.226456E-2,7.218205E-2,-3.5865758E-2],"categories":[],"categories_nodes":[],"categories_segments":[],"categories_sizes":[],"default_left":[0,0,0,0,0,0,0,0,0,0,0,0,0],"id":16,"left_children":[1,3,5,7,9,11,-1,-1,-1,-1,-1,-1,-1],"loss_changes":[2.9704931E1,5.58337E0,4.5810604E0,4.629364E-1,1.9121728E0,3.558681E0,0E0,0E0,0E0,0E0,0E0,0E0,0E0],"parents":[2147483647,0,0,1,1,2,2,3,3,4,4,5,5],"right_children":[2,4,6,8,10,12,-1,-1,-1,-1,-1,-1,-1],"split_conditions":[3.3902414E-2,-6.8862003E-1,5.6040007E-1,8.8072944E-1,-2.4126238E-1,3.747808E-1,1.2310147E-1,-1.1837745E-1,-5.469961E-2,7.142546E-3,-5.226456E-2,7.218205E-2,-3.5865758E-2],"split_indices":[1,1,1,3,1,0,0,0,0,0,0,0,0],"split_type":[0,0,0,0,0,0,0,0,0,0,0,0,0],"sum_hessian":[5.892795E1,3.4254124E1,2.4673826E1,1.3953369E1,2.0300755E1,1.1356925E1,1.3316902E1,9.484176E0,4.469194E0,1.1052742E1,9.2480135E0,7.312092E0,4.0448327E0],"tree_param":{"num_deleted":"0","num_feature":"4","num_nodes":"13","size_leaf_vector":"1"}},{"base_weights":[7.835325E-2,-4.573476E-1,7.969208E-1,-9.4118935E-1,-2.5255907E-1,3.7316924E-1,1.18282974E-1,-1.9803219E-2,-1.01534165E-1,-4.156294E-2,1.6680617E-2,-4.442277E-2,6.907617E-2],"categories":[],"categories_nodes":[],"categories_segments":[],"categories_sizes":[],"default_left":[0,0,0,0,0,0,0,0,0,0,0,0,0],"id":17,"left_children":[1,3,5,7,9,11,-1,-1,-1,-1,-1,-1,-1],"loss_changes":[2.2798971E1,3.1336079E0,3.688795E0,3.3630848E-1,1.7976347E0,3.8111677E0,0E0,0E0,0E0,0E0,0E0,0E0,0E0],"parents":[2147483647,0,0,1,1,2,2,3,3,4,4,5,5],"right_children":[2,4,6,8,10,12,-1,-1,-1,-1,-1,-1,-1],"split_conditions":[1.3778965E-2,-8.695612E-1,5.7844555E-1,-1.2881001E0,8.3335936E-1,-8.786209E-1,1.18282974E-1,-1.9803219E-2,-1.01534165E-1,-4.156294E-2,1.6680617E-2,-4.442277E-2,6.907617E-2],"split_indices":[1,1,1,2,3,2,0,0,0,0,0,0,0],"split_type":[0,0,0,0,0,0,0,0,0,0,0,0,0],"sum_hessian":[5.7280933E1,3.3024384E1,2.425655E1,8.7515955E0,2.4272787E1,1.24989395E1,1.175761E1,1.1270341E0,7.6245613E0,1.7483307E1,6.789481E0,3.3858767E0,9.113064E0],"tree_param":{"num_deleted":"0","num_feature":"4","num_nodes":"13","size_leaf_vector":"1"}},{"base_weights":[7.2670035E-2,-4.3668422E-1,8.2292306E-1,-8.5739774E-1,-2.5438768E-1,3.6303806E-1,1.12568475E-1,-1.8876461E-2,-9.152413E-2,-1.2874926E-2,-8.253861E-2,-7.301855E-2,5.4401543E-2],"categories":[],"categories_nodes":[],"categories_segments":[],"categories_sizes":[],"default_left":[0,0,0,0,0,0,0,0,0,0,0,0,0],"id":18,"left_children":[1,3,5,7,9,11,-1,-1,-1,-1,-1,-1,-1],"loss_changes":[2.3600431E1,2.6102114E0,3.063839E0,2.4210024E-1,1.8415298E0,2.6481218E0,0E0,0E0,0E0,0E0,0E0,0E0,0E0],"parents":[2147483647,0,0,1,1,2,2,3,3,4,4,5,5],"right_children":[2,4,6,8,10,12,-1,-1,-1,-1,-1,-1,-1],"split_conditions":[1.5944874E-2,-8.695612E-1,4.906968E-1,-1.2881001E0,1.0578008E0,-1.4889349E0,1.12568475E-1,-1.8876461E-2,-9.152413E-2,-1.2874926E-2,-8.253861E-2,-7.301855E-2,5.4401543E-2],"split_indices":[1,1,1,2,2,2,0,0,0,0,0,0,0],"split_type":[0,0,0,0,0,0,0,0,0,0,0,0,0],"sum_hessian":[5.9817493E1,3.587771E1,2.3939785E1,9.726671E0,2.6151037E1,1.0376822E1,1.3562963E1,1.113915E0,8.612757E0,2.2439165E1,3.7118728E0,1.0428194E0,9.334003E0],"tree_param":{"num_deleted":"0","num_feature":"4","num_nodes":"13","size_leaf_vector":"1"}},{"base_weights":[2.5521757E-2,-1.5840264E-1,1.55349E-1,2.4509862E-2,-5.169762E-1,6.607813E-1,-4.8658103E-2,-9.858045E-3,9.2942774E-2,-8.123102E-2,8.265395E-3,1.6844693E-1,3.207381E-2,-4.955629E-2,1.4773433E-2],"categories":[],"categories_nodes":[],"categories_segments":[],"categories_sizes":[],"default_left":[0,0,0,0,0,0,0,0,0,0,0,0,0,0,0],"id":19,"left_children":[1,3,5,7,9,11,13,-1,-1,-1,-1,-1,-1,-1,-1],"loss_changes":[1.3896564E0,1.5966194E0,3.5396597E0,1.9792942E0,1.519839E0,2.8886395E0,2.2820108E0,0E0,0E0,0E0,0E0,0E0,0E0,0E0,0E0],"parents":[2147483647,0,0,1,1,2,2,3,3,4,4,5,5,6,6],"right_children":[2,4,6,8,10,12,14,-1,-1,-1,-1,-1,-1,-1,-1],"split_conditions":[-2.559239E-1,-7.379401E-1,2.9016307E-1,-8.2541317E-1,4.0628117E-1,-9.067013E-1,7.310704E-1,-9.858045E-3,9.2942774E-2,-8.123102E-2,8.265395E-3,1.6844693E-1,3.207381E-2,-4.955629E-2,1.4773433E-2],"split_indices":[3,3,3,3,2,0,3,0,0,0,0,0,0,0,0],"split_type":[0,0,0,0,0,0,0,0,0,0,0,0,0,0,0],"sum_hessian":[5.616668E1,2.3150126E1,3.3016556E1,1.5947015E1,7.20311E0,8.850421E0,2.4166134E1,1.482194E1,1.1250744E0,4.5884767E0,2.6146336E0,1.220988E0,7.6294327E0,6.9126296E0,1.7253504E1],"tree_param":{"num_deleted":"0","num_feature":"4","num_nodes":"15","size_leaf_vector":"1"}},{"base_weights":[-2.4069324E-2,-3.3879519E-1,9.3450445E-1,-7.897155E-1,-1.4575718E-1,2.9035124E-1,1.1179399E-1,-5.0825387E-2,-1.03518285E-1,-8.9087486E-2,1.6164453E-3,5.1847514E-2,-2.2418411E-2],"categories":[],"categories_nodes":[],"categories_segments":[],"categories_sizes":[],"default_left":[0,0,0,0,0,0,0,0,0,0,0,0,0],"id":20,"left_children":[1,3,5,7,9,11,-1,-1,-1,-1,-1,-1,-1],"loss_changes":[1.8191204E1,3.8313165E0,1.4372702E0,3.9721203E-1,3.9926603E0,6.627234E-1,0E0,0E0,0E0,0E0,0E0,0E0,0E0],"parents":[2147483647,0,0,1,1,2,2,3,3,4,4,5,5],"right_children":[2,4,6,8,10,12,-1,-1,-1,-1,-1,-1,-1],"split_conditions":[4.6778968E-1,-7.4896604E-1,5.7844555E-1,1.286943E-1,-1.1000717E0,5.4892147E-1,1.1179399E-1,-5.0825387E-2,-1.03518285E-1,-8.9087486E-2,1.6164453E-3,5.1847514E-2,-2.2418411E-2],"split_indices":[1,1,1,2,2,1,0,0,0,0,0,0,0],"split_type":[0,0,0,0,0,0,0,0,0,0,0,0,0],"sum_hessian":[5.8248627E1,4.4337864E1,1.3910765E1,1.2364489E1,3.1973375E1,3.6558175E0,1.0254947E1,7.1903405E0,5.174148E0,4.9041185E0,2.7069258E1,2.527549E0,1.1282685E0],"tree_param":{"num_deleted":"0","num_feature":"4","num_nodes":"13","size_leaf_vector":"1"}},{"base_weights":[-7.307567E-2,4.2080444E-1,-1.4475688E-1,-2.8920565E-2,6.4487165E-1,-6.9362275E-2,-9.141442E-2,1.7710796E-2,8.23002E-2,-1.9725512E-3,-6.089359E-2],"categories":[],"categories_nodes":[],"categories_segments":[],"categories_sizes":[],"default_left":[0,0,0,0,0,0,0,0,0,0,0],"id":21,"left_children":[1,3,5,-1,7,-1,9,-1,-1,-1,-1],"loss_changes":[2.0579913E0,1.3646805E0,1.4006549E0,0E0,3.4908342E-1,0E0,1.7216293E0,0E0,0E0,0E0,0E0],"parents":[2147483647,0,0,1,1,2,2,4,4,6,6],"right_children":[2,4,6,-1,8,-1,10,-1,-1,-1,-1],"split_conditions":[-1.3582516E0,-1.606372E0,-1.1253724E0,-2.8920565E-2,-5.6113124E-1,-6.9362275E-2,1.3030652E0,1.7710796E-2,8.23002E-2,-1.9725512E-3,-6.089359E-2],"split_indices":[3,3,3,0,2,0,2,0,0,0,0],"split_type":[0,0,0,0,0,0,0,0,0,0,0],"sum_hessian":[5.5411533E1,6.4057474E0,4.9005787E1,1.4668801E0,4.9388676E0,3.2776184E0,4.572817E1,1.9120789E0,3.0267885E0,4.1076256E1,4.651913E0],"tree_param":{"num_deleted":"0","num_feature":"4","num_nodes":"11","size_leaf_vector":"1"}},{"base_weights":[-5.5904746E-2,-3.398136E-1,1.1000108E-1,-1.0573652E-1,-1.9008859E-1,-9.538985E-3,-9.1578E-2],"categories":[],"categories_nodes":[],"categories_segments":[],"categories_sizes":[],"default_left":[0,0,0,0,0,0,0],"id":22,"left_children":[1,3,-1,-1,5,-1,-1],"loss_changes":[1.8818745E1,4.7287946E0,0E0,0E0,2.6054187E0,0E0,0E0],"parents":[2147483647,0,0,1,1,4,4],"right_children":[2,4,-1,-1,6,-1,-1],"split_conditions":[5.7844555E-1,-9.1410065E-1,1.1000108E-1,-1.0573652E-1,1.1932544E0,-9.538985E-3,-9.1578E-2],"split_indices":[1,1,0,0,2,0,0],"split_type":[0,0,0,0,0,0,0],"sum_hessian":[5.5204674E1,4.488606E1,1.0318615E1,6.7025037E0,3.8183556E1,3.4776817E1,3.4067361E0],"tree_param":{"num_deleted":"0","num_feature":"4","num_nodes":"7","size_leaf_vector":"1"}},{"base_weights":[2.0112162E-2,-2.2952227E-1,9.585597E-1,-4.718352E-1,5.5742104E-2,3.1999286E-2,1.0649216E-1,-5.7917725E-2,7.4650176E-2,-3.5010193E-2,3.991653E-2],"categories":[],"categories_nodes":[],"categories_segments":[],"categories_sizes":[],"default_left":[0,0,0,0,0,0,0,0,0,0,0],"id":23,"left_children":[1,3,5,7,9,-1,-1,-1,-1,-1,-1],"loss_changes":[1.355073E1,3.188968E0,4.8441696E-1,3.6815748E0,3.1933258E0,0E0,0E0,0E0,0E0,0E0,0E0],"parents":[2147483647,0,0,1,1,2,2,3,3,4,4],"right_children":[2,4,6,8,10,-1,-1,-1,-1,-1,-1],"split_conditions":[4.906968E-1,-2.8515357E-1,5.7844555E-1,1.5500178E0,-3.0782166E-1,3.1999286E-2,1.0649216E-1,-5.7917725E-2,7.4650176E-2,-3.5010193E-2,3.991653E-2],"split_indices":[1,1,1,3,3,0,0,0,0,0,0],"split_type":[0,0,0,0,0,0,0,0,0,0,0],"sum_hessian":[5.5903522E1,4.4754025E1,1.1149499E1,2.3845146E1,2.0908878E1,2.1642833E0,8.985216E0,2.239651E1,1.4486367E0,9.574574E0,1.1334303E1],"tree_param":{"num_deleted":"0","num_feature":"4","num_nodes":"11","size_leaf_vector":"1"}},{"base_weights":[3.1390681E-3,-4.26157E-1,6.379946E-1,-3.2266968E-1,-8.606066E-1,2.7197197E-1,1.05094746E-1,-4.6150096E-2,2.1109791E-2,-9.909139E-2,-1.616021E-2,-8.227069E-2,4.5339644E-2],"categories":[],"categories_nodes":[],"categories_segments":[],"categories_sizes":[],"default_left":[0,0,0,0,0,0,0,0,0,0,0,0,0],"id":24,"left_children":[1,3,5,7,9,11,-1,-1,-1,-1,-1,-1,-1],"loss_changes":[1.5195173E1,1.2179556E0,3.113533E0,2.206878E0,3.6814785E-1,3.0087717E0,0E0,0E0,0E0,0E0,0E0,0E0,0E0],"parents":[2147483647,0,0,1,1,2,2,3,3,4,4,5,5],"right_children":[2,4,6,8,10,12,-1,-1,-1,-1,-1,-1,-1],"split_conditions":[3.3902414E-2,1.0578008E0,5.7844555E-1,4.0628117E-1,7.9907453E-1,-1.4426126E0,1.05094746E-1,-4.6150096E-2,2.1109791E-2,-9.909139E-2,-1.616021E-2,-8.227069E-2,4.5339644E-2],"split_indices":[1,2,1,2,0,2,0,0,0,0,0,0,0],"split_type":[0,0,0,0,0,0,0,0,0,0,0,0,0],"sum_hessian":[5.3756123E1,3.2266148E1,2.1489977E1,2.7466293E1,4.799852E0,1.2271595E1,9.218382E0,2.1904415E1,5.5618796E0,3.6936758E0,1.1061761E0,1.2421292E0,1.1029466E1],"tree_param":{"num_deleted":"0","num_feature":"4","num_nodes":"13","size_leaf_vector":"1"}},{"base_weights":[9.091852E-2,4.8539224E-1,-4.1769195E-2,-5.0159246E-2,6.062341E-1,-6.824079E-2,1.4005564E-2,8.131607E-2,5.446806E-3,-2.1406231E-2,1.4368598E-2],"categories":[],"categories_nodes":[],"categories_segments":[],"categories_sizes":[],"default_left":[0,0,0,0,0,0,0,0,0,0,0],"id":25,"left_children":[1,3,5,-1,7,-1,9,-1,-1,-1,-1],"loss_changes":[2.8239534E0,1.9215627E0,1.4746617E0,0E0,1.3869028E0,0E0,1.1753224E0,0E0,0E0,0E0,0E0],"parents":[2147483647,0,0,1,1,2,2,4,4,6,6],"right_children":[2,4,6,-1,8,-1,10,-1,-1,-1,-1],"split_conditions":[-6.515777E-1,-1.3013539E0,-5.5899215E-1,-5.0159246E-2,4.586603E-1,-6.824079E-2,-5.429081E-1,8.131607E-2,5.446806E-3,-2.1406231E-2,1.4368598E-2],"split_indices":[0,2,0,0,3,0,2,0,0,0,0],"split_type":[0,0,0,0,0,0,0,0,0,0,0],"sum_hessian":[5.25648E1,1.2561615E1,4.0003185E1,1.0265306E0,1.1535085E1,2.3039975E0,3.769919E1,8.044461E0,3.4906235E0,1.3429735E1,2.4269453E1],"tree_param":{"num_deleted":"0","num_feature":"4","num_nodes":"11","size_leaf_vector":"1"}},{"base_weights":[-4.1769512E-2,-8.4273286E-2,7.0446886E-2,6.200313E-2,-2.9664177E-1,-5.640567E-4,9.6813984E-2,-5.2066773E-2,7.73636E-3],"categories":[],"categories_nodes":[],"categories_segments":[],"categories_sizes":[],"default_left":[0,0,0,0,0,0,0,0,0],"id":26,"left_children":[1,3,-1,5,7,-1,-1,-1,-1],"loss_changes":[1.6632652E0,1.5323415E0,0E0,1.8250183E0,1.7202208E0,0E0,0E0,0E0,0E0],"parents":[2147483647,0,0,1,1,3,3,4,4],"right_children":[2,4,-1,6,8,-1,-1,-1,-1],"split_conditions":[1.5613269E0,2.9016307E-1,7.0446886E-2,2.34142E-1,1.1282893E0,-5.640567E-4,9.6813984E-2,-5.2066773E-2,7.73636E-3],"split_indices":[3,3,0,3,3,0,0,0,0],"split_type":[0,0,0,0,0,0,0,0,0],"sum_hessian":[4.9567493E1,4.7735664E1,1.8318287E0,2.8685522E1,1.9050144E1,2.7617622E1,1.0678984E0,1.1668608E1,7.381536E0],"tree_param":{"num_deleted":"0","num_feature":"4","num_nodes":"9","size_leaf_vector":"1"}},{"base_weights":[-2.1050673E-2,-4.4028857E-1,5.90591E-1,-9.417953E-2,-3.3182058E-1,-5.043692E-1,7.4668986E-1,-4.8562627E-2,-5.821647E-4,-7.612687E-2,2.7922927E-3,4.568761E-2,1.0282604E-1],"categories":[],"categories_nodes":[],"categories_segments":[],"categories_sizes":[],"default_left":[0,0,0,0,0,0,0,0,0,0,0,0,0],"id":27,"left_children":[1,3,5,-1,7,9,11,-1,-1,-1,-1,-1,-1],"loss_changes":[1.3969079E1,1.4441657E0,4.1658196E0,0E0,1.4058592E0,4.811291E-1,1.1464634E0,0E0,0E0,0E0,0E0,0E0,0E0],"parents":[2147483647,0,0,1,1,2,2,4,4,5,5,6,6],"right_children":[2,4,6,-1,8,10,12,-1,-1,-1,-1,-1,-1],"split_conditions":[3.3902414E-2,-1.0227367E0,-1.4425629E0,-9.417953E-2,2.90107E-1,3.8355318E-1,5.6040007E-1,-4.8562627E-2,-5.821647E-4,-7.612687E-2,2.7922927E-3,4.568761E-2,1.0282604E-1],"split_indices":[1,1,2,0,0,1,1,0,0,0,0,0,0],"split_type":[0,0,0,0,0,0,0,0,0,0,0,0,0],"sum_hessian":[5.2462555E1,3.1293312E1,2.116924E1,4.1985273E0,2.7094786E1,2.3629768E0,1.8806263E1,1.8076616E1,9.0181675E0,1.3036344E0,1.0593423E0,1.0559855E1,8.246408E0],"tree_param":{"num_deleted":"0","num_feature":"4","num_nodes":"13","size_leaf_vector":"1"}},{"base_weights":[5.295163E-2,1.651892E-2,8.296449E-2,6.9564834E-2,-2.8517163E-1,-3.0527575E-4,9.317139E-2,3.8536713E-2,-5.1221874E-2],"categories":[],"categories_nodes":[],"categories_segments":[],"categories_sizes":[],"default_left":[0,0,0,0,0,0,0,0,0],"id":28,"left_children":[1,3,-1,5,7,-1,-1,-1,-1],"loss_changes":[1.3983762E0,7.989897E-1,0E0,2.6454935E0,1.3356421E0,0E0,0E0,0E0,0E0],"parents":[2147483647,0,0,1,1,3,3,4,4],"right_children":[2,4,-1,6,8,-1,-1,-1,-1],"split_conditions":[1.6248494E0,1.236224E0,8.296449E-2,1.0793897E0,-7.943907E-1,-3.0527575E-4,9.317139E-2,3.8536713E-2,-5.1221874E-2],"split_indices":[3,3,0,3,2,0,0,0,0],"split_type":[0,0,0,0,0,0,0,0,0],"sum_hessian":[4.8902077E1,4.7686493E1,1.2155843E0,4.121E1,6.476492E0,3.892764E1,2.2823608E0,1.461864E0,5.014628E0],"tree_param":{"num_deleted":"0","num_feature":"4","num_nodes":"9","size_leaf_vector":"1"}},{"base_weights":[-2.395885E-2,7.286126E-2,-2.4732858E-1,-3.608394E-1,1.6822593E-1,-7.3316455E-1,4.9435735E-2,-5.8349974E-2,8.134921E-3,8.5474774E-2,3.658464E-3,-8.7020114E-2,-2.3386774E-3,4.4620756E-2,-2.2186758E-2],"categories":[],"categories_nodes":[],"categories_segments":[],"categories_sizes":[],"default_left":[0,0,0,0,0,0,0,0,0,0,0,0,0,0,0],"id":29,"left_children":[1,3,5,7,9,11,13,-1,-1,-1,-1,-1,-1,-1,-1],"loss_changes":[1.1382922E0,1.5872602E0,2.3274112E0,7.338082E-1,2.7647731E0,5.719125E-1,1.2617872E0,0E0,0E0,0E0,0E0,0E0,0E0,0E0,0E0],"parents":[2147483647,0,0,1,1,2,2,3,3,4,4,5,5,6,6],"right_children":[2,4,6,8,10,12,14,-1,-1,-1,-1,-1,-1,-1,-1],"split_conditions":[5.270829E-1,-1.1000717E0,8.6549443E-1,-4.111784E-2,-7.943907E-1,9.216332E-1,-7.329394E-1,-5.8349974E-2,8.134921E-3,8.5474774E-2,3.658464E-3,-8.7020114E-2,-2.3386774E-3,4.4620756E-2,-2.2186758E-2],"split_indices":[0,2,0,0,2,2,3,0,0,0,0,0,0,0,0],"split_type":[0,0,0,0,0,0,0,0,0,0,0,0,0,0,0],"sum_hessian":[5.0800438E1,3.5909286E1,1.4891152E1,5.9709115E0,2.9938374E1,5.08914E0,9.802012E0,3.7586854E0,2.2122262E0,3.9332252E0,2.600515E1,4.0761414E0,1.0129983E0,3.7187648E0,6.0832477E0],"tree_param":{"num_deleted":"0","num_feature":"4","num_nodes":"15","size_leaf_vector":"1"}},{"base_weights":[6.227668E-2,-1.2422242E-1,1.968928E-1,-3.235891E-1,2.6411775E-1,3.097671E-1,-7.560892E-2,1.7584866E-2,-5.4053158E-2,-6.8586245E-3,5.616778E-2,1.08587146E-1,1.8460361E-2],"categories":[],"categories_nodes":[],"categories_segments":[],"categories_sizes":[],"default_left":[0,0,0,0,0,0,0,0,0,0,0,0,0],"id":30,"left_children":[1,3,5,7,9,11,-1,-1,-1,-1,-1,-1,-1],"loss_changes":[1.3325961E0,1.8240817E0,3.531006E0,1.7514864E0,8.471917E-1,2.5303783E0,0E0,0E0,0E0,0E0,0E0,0E0,0E0],"parents":[2147483647,0,0,1,1,2,2,3,3,4,4,5,5],"right_children":[2,4,6,8,10,12,-1,-1,-1,-1,-1,-1,-1],"split_conditions":[-2.559239E-1,4.895146E-1,1.1932544E0,-1.2987344E0,2.7773228E-1,-1.2763627E-1,-7.560892E-2,1.7584866E-2,-5.4053158E-2,-6.8586245E-3,5.616778E-2,1.08587146E-1,1.8460361E-2],"split_indices":[3,2,2,3,0,3,0,0,0,0,0,0,0],"split_type":[0,0,0,0,0,0,0,0,0,0,0,0,0],"sum_hessian":[5.110503E1,2.1456331E1,2.9648699E1,1.4287916E1,7.168414E0,2.711237E1,2.5363286E0,4.3841944E0,9.903723E0,3.7476475E0,3.4207666E0,2.699277E0,2.4413094E1],"tree_param":{"num_deleted":"0","num_feature":"4","num_nodes":"13","size_leaf_vector":"1"}},{"base_weights":[8.456986E-2,-5.463269E-1,1.5535088E-1,-8.314843E-2,2.225424E-2,5.957336E-2,3.9962503E-1,1.954899E-2,-5.7521522E-2,5.982858E-2,-6.529768E-2],"categories":[],"categories_nodes":[],"categories_segments":[],"categories_sizes":[],"default_left":[0,0,0,0,0,0,0,0,0,0,0],"id":31,"left_children":[1,3,5,-1,-1,7,9,-1,-1,-1,-1],"loss_changes":[2.3599532E0,1.3603586E0,1.0661345E0,0E0,0E0,3.101169E0,3.0978603E0,0E0,0E0,0E0,0E0],"parents":[2147483647,0,0,1,1,2,2,5,5,6,6],"right_children":[2,4,6,-1,-1,8,10,-1,-1,-1,-1],"split_conditions":[-1.4237353E0,2.1215186E-1,9.2804664E-1,-8.314843E-2,2.225424E-2,4.7290778E-1,1.2457933E0,1.954899E-2,-5.7521522E-2,5.982858E-2,-6.529768E-2],"split_indices":[2,0,3,0,0,3,2,0,0,0,0],"split_type":[0,0,0,0,0,0,0,0,0,0,0],"sum_hessian":[4.994737E1,4.360663E0,4.5586708E1,3.1215193E0,1.2391434E0,3.364048E1,1.1946226E1,2.827786E1,5.362621E0,1.0412631E1,1.5335952E0],"tree_param":{"num_deleted":"0","num_feature":"4","num_nodes":"11","size_leaf_vector":"1"}},{"base_weights":[1.7135123E-2,-2.2542831E-1,8.969369E-1,-9.294465E-2,-1.2211518E-1,2.938998E-1,1.01011015E-1,1.7071933E-2,-3.1914245E-2,6.956973E-2,-2.5012141E-2],"categories":[],"categories_nodes":[],"categories_segments":[],"categories_sizes":[],"default_left":[0,0,0,0,0,0,0,0,0,0,0],"id":32,"left_children":[1,3,5,-1,7,9,-1,-1,-1,-1,-1],"loss_changes":[1.1112224E1,2.859406E0,4.7087765E-1,0E0,2.1773775E0,8.7085176E-1,0E0,0E0,0E0,0E0,0E0],"parents":[2147483647,0,0,1,1,2,2,4,4,5,5],"right_children":[2,4,6,-1,8,10,-1,-1,-1,-1,-1],"split_conditions":[4.906968E-1,-1.0227367E0,5.7844555E-1,-9.294465E-2,-4.2378297E-1,5.4892147E-1,1.01011015E-1,1.7071933E-2,-3.1914245E-2,6.956973E-2,-2.5012141E-2],"split_indices":[1,1,1,0,2,1,0,0,0,0,0],"split_type":[0,0,0,0,0,0,0,0,0,0,0],"sum_hessian":[5.012293E1,3.9873486E1,1.0249441E1,4.079269E0,3.579422E1,2.1879535E0,8.061487E0,1.4450496E1,2.1343723E1,1.0981144E0,1.0898391E0],"tree_param":{"num_deleted":"0","num_feature":"4","num_nodes":"11","size_leaf_vector":"1"}},{"base_weights":[-4.135544E-2,-2.426487E-1,9.877123E-2,-4.2214218E-1,6.9010906E-2,1.040263E-2,-6.1279465E-2,-8.008301E-2,2.0706851E-2],"categories":[],"categories_nodes":[],"categories_segments":[],"categories_sizes":[],"default_left":[0,0,0,0,0,0,0,0,0],"id":33,"left_children":[1,3,-1,5,7,-1,-1,-1,-1],"loss_changes":[1.0495975E1,2.3906803E0,0E0,2.7650313E0,2.1217177E0,0E0,0E0,0E0,0E0],"parents":[2147483647,0,0,1,1,3,3,4,4],"right_children":[2,4,-1,6,8,-1,-1,-1,-1],"split_conditions":[5.7844555E-1,-2.6625376E-2,9.877123E-2,-6.7143154E-1,-1.4425629E0,1.040263E-2,-6.1279465E-2,-8.008301E-2,2.0706851E-2],"split_indices":[1,1,0,0,2,0,0,0,0],"split_type":[0,0,0,0,0,0,0,0,0],"sum_hessian":[4.8512836E1,4.121507E1,7.297768E0,2.5927944E1,1.5287125E1,7.0168886E0,1.8911057E1,1.4363859E0,1.38507395E1],"tree_param":{"num_deleted":"0","num_feature":"4","num_nodes":"9","size_leaf_vector":"1"}},{"base_weights":[-3.758795E-2,-5.2748525E-1,7.1130884E-3,1.7584598E-2,-8.239743E-2,-2.6182724E-2,6.0834926E-2,3.603294E-2,-7.893707E-3],"categories":[],"categories_nodes":[],"categories_segments":[],"categories_sizes":[],"default_left":[0,0,0,0,0,0,0,0,0],"id":34,"left_children":[1,3,5,-1,-1,7,-1,-1,-1],"loss_changes":[1.0609149E0,9.894067E-1,9.212676E-1,0E0,0E0,9.217471E-1,0E0,0E0,0E0],"parents":[2147483647,0,0,1,1,2,2,5,5],"right_children":[2,4,6,-1,-1,8,-1,-1,-1],"split_conditions":[-1.4855626E0,-1.9438975E0,1.6248494E0,1.7584598E-2,-8.239743E-2,-1.4106259E0,6.0834926E-2,3.603294E-2,-7.893707E-3],"split_indices":[0,0,3,0,0,3,0,0,0],"split_type":[0,0,0,0,0,0,0,0,0],"sum_hessian":[4.7274654E1,3.0498445E0,4.4224808E1,1.0250727E0,2.0247717E0,4.2810463E1,1.4143456E0,4.441183E0,3.836928E1],"tree_param":{"num_deleted":"0","num_feature":"4","num_nodes":"9","size_leaf_vector":"1"}},{"base_weights":[3.1708296E-2,-1.4413963E-1,9.704441E-2,2.6794165E-1,-2.8543797E-1,5.0820946E-3,9.2274494E-2,-4.4347417E-2,2.8916214E-2],"categories":[],"categories_nodes":[],"categories_segments":[],"categories_sizes":[],"default_left":[0,0,0,0,0,0,0,0,0],"id":35,"left_children":[1,3,-1,5,7,-1,-1,-1,-1],"loss_changes":[8.173263E0,2.5137157E0,0E0,1.5459483E0,3.0026798E0,0E0,0E0,0E0,0E0],"parents":[2147483647,0,0,1,1,3,3,4,4],"right_children":[2,4,-1,6,8,-1,-1,-1,-1],"split_conditions":[5.7844555E-1,-6.5902364E-1,9.704441E-2,-7.677108E-1,9.79056E-1,5.0820946E-3,9.2274494E-2,-4.4347417E-2,2.8916214E-2],"split_indices":[1,0,0,0,0,0,0,0,0],"split_type":[0,0,0,0,0,0,0,0,0],"sum_hessian":[4.7665123E1,4.0857903E1,6.8072205E0,1.0203684E1,3.0654219E1,8.472103E0,1.7315806E0,2.4220808E1,6.43341E0],"tree_param":{"num_deleted":"0","num_feature":"4","num_nodes":"9","size_leaf_vector":"1"}},{"base_weights":[-7.838065E-2,-2.973651E-1,9.112973E-1,2.1158232E-1,-4.6434936E-1,3.5249434E-2,9.9171035E-2,-2.6564545E-3,1.2209048E-1,-7.202514E-2,-1.6193783E-2],"categories":[],"categories_nodes":[],"categories_segments":[],"categories_sizes":[],"default_left":[0,0,0,0,0,0,0,0,0,0,0],"id":36,"left_children":[1,3,5,7,9,-1,-1,-1,-1,-1,-1],"loss_changes":[1.0485119E1,3.4420063E0,4.5179844E-2,2.5338883E0,2.2001886E0,0E0,0E0,0E0,0E0,0E0,0E0],"parents":[2147483647,0,0,1,1,2,2,3,3,4,4],"right_children":[2,4,6,8,10,-1,-1,-1,-1,-1,-1],"split_conditions":[4.6778968E-1,-6.5902364E-1,-1.1423068E0,1.3318582E0,-2.8515357E-1,3.5249434E-2,9.9171035E-2,-2.6564545E-3,1.2209048E-1,-7.202514E-2,-1.6193783E-2],"split_indices":[1,0,3,3,1,0,0,0,0,0,0],"split_type":[0,0,0,0,0,0,0,0,0,0,0],"sum_hessian":[4.612965E1,3.834471E1,7.784939E0,9.406817E0,2.8937895E1,1.6565882E0,6.1283507E0,8.39882E0,1.0079975E0,1.4925866E1,1.4012029E1],"tree_param":{"num_deleted":"0","num_feature":"4","num_nodes":"11","size_leaf_vector":"1"}},{"base_weights":[4.2349227E-2,-2.0839162E-1,2.3653805E-1,2.8001E-1,-3.401203E-1,1.2000761E-1,1.0351303E-1,8.885798E-2,-1.8156163E-2,-4.9780186E-2,1.4855243E-2,-7.565039E-2,2.002648E-2],"categories":[],"categories_nodes":[],"categories_segments":[],"categories_sizes":[],"default_left":[0,0,0,0,0,0,0,0,0,0,0,0,0],"id":37,"left_children":[1,3,5,7,9,-1,11,-1,-1,-1,-1,-1,-1],"loss_changes":[2.2370996E0,1.3911226E0,3.1814141E0,1.5172613E0,1.3311117E0,0E0,2.1281838E0,0E0,0E0,0E0,0E0,0E0,0E0],"parents":[2147483647,0,0,1,1,2,2,3,3,4,4,6,6],"right_children":[2,4,6,8,10,-1,12,-1,-1,-1,-1,-1,-1],"split_conditions":[-2.559239E-1,-1.4106259E0,-1.2763627E-1,-6.905407E-1,5.365728E-1,1.2000761E-1,-1.0246256E-2,8.885798E-2,-1.8156163E-2,-4.9780186E-2,1.4855243E-2,-7.565039E-2,2.002648E-2],"split_indices":[3,3,3,0,0,0,3,0,0,0,0,0,0],"split_type":[0,0,0,0,0,0,0,0,0,0,0,0,0],"sum_hessian":[4.3932407E1,1.9142307E1,2.4790102E1,3.827114E0,1.5315192E1,2.0342221E0,2.2755878E1,1.2516843E0,2.57543E0,1.1564846E1,3.7503467E0,1.6115906E0,2.1144289E1],"tree_param":{"num_deleted":"0","num_feature":"4","num_nodes":"13","size_leaf_vector":"1"}},{"base_weights":[4.0341023E-2,-8.3726466E-1,2.510738E-1,-7.47176E-3,-1.0024899E-1,1.0299156E-1,9.309622E-2,-6.245045E-2,2.0909995E-2],"categories":[],"categories_nodes":[],"categories_segments":[],"categories_sizes":[],"default_left":[0,0,0,0,0,0,0,0,0],"id":38,"left_children":[1,3,5,-1,-1,7,-1,-1,-1],"loss_changes":[8.775602E0,1.0840278E0,3.7416036E0,0E0,0E0,2.6334476E0,0E0,0E0,0E0],"parents":[2147483647,0,0,1,1,2,2,5,5],"right_children":[2,4,6,-1,-1,8,-1,-1,-1],"split_conditions":[-7.4896604E-1,-7.239983E-1,5.7844555E-1,-7.47176E-3,-1.0024899E-1,-1.3013539E0,9.309622E-2,-6.245045E-2,2.0909995E-2],"split_indices":[1,0,1,0,0,2,0,0,0],"split_type":[0,0,0,0,0,0,0,0,0],"sum_hessian":[4.5314342E1,8.198447E0,3.7115894E1,1.7186689E0,6.4797783E0,3.142327E1,5.692624E0,3.3779528E0,2.8045317E1],"tree_param":{"num_deleted":"0","num_feature":"4","num_nodes":"9","size_leaf_vector":"1"}},{"base_weights":[1.6824992E-2,-3.4170935E-1,4.1250604E-1,-6.504014E-1,-1.3189271E-1,-4.004434E-2,5.169602E-1,-3.684186E-2,-8.9743994E-2,9.070874E-2,-3.028951E-2,3.3305734E-2,8.939468E-2],"categories":[],"categories_nodes":[],"categories_segments":[],"categories_sizes":[],"default_left":[0,0,0,0,0,0,0,0,0,0,0,0,0],"id":39,"left_children":[1,3,5,7,9,-1,11,-1,-1,-1,-1,-1,-1],"loss_changes":[6.2472186E0,1.412204E0,1.9829824E0,3.0359626E-1,2.9439802E0,0E0,1.0174098E0,0E0,0E0,0E0,0E0,0E0,0E0],"parents":[2147483647,0,0,1,1,2,2,3,3,4,4,6,6],"right_children":[2,4,6,8,10,-1,12,-1,-1,-1,-1,-1,-1],"split_conditions":[-9.465555E-2,-2.559239E-1,-1.3750756E0,-8.141142E-1,-1.2775269E-1,-4.004434E-2,5.7844555E-1,-3.684186E-2,-8.9743994E-2,9.070874E-2,-3.028951E-2,3.3305734E-2,8.939468E-2],"split_indices":[1,3,0,3,3,0,1,0,0,0,0,0,0],"split_type":[0,0,0,0,0,0,0,0,0,0,0,0,0],"sum_hessian":[4.2042686E1,2.212825E1,1.9914438E1,8.10457E0,1.402368E1,1.9447887E0,1.7969648E1,4.9480004E0,3.1565697E0,1.3735714E0,1.2650108E1,1.3343736E1,4.625913E0],"tree_param":{"num_deleted":"0","num_feature":"4","num_nodes":"13","size_leaf_vector":"1"}},{"base_weights":[-2.9044E-2,-3.498862E-1,4.0009403E-1,-5.8905774E-1,1.5897153E-1,1.9003798E-1,8.826452E-2,-7.1867183E-3,-7.893559E-2,4.0345933E-2,-4.7405764E-2,-5.109605E-2,3.0227274E-2],"categories":[],"categories_nodes":[],"categories_segments":[],"categories_sizes":[],"default_left":[0,0,0,0,0,0,0,0,0,0,0,0,0],"id":40,"left_children":[1,3,5,7,9,11,-1,-1,-1,-1,-1,-1,-1],"loss_changes":[6.112757E0,3.179497E0,1.7606332E0,1.7520823E0,1.5678434E0,1.2975405E0,0E0,0E0,0E0,0E0,0E0,0E0,0E0],"parents":[2147483647,0,0,1,1,2,2,3,3,4,4,5,5],"right_children":[2,4,6,8,10,12,-1,-1,-1,-1,-1,-1,-1],"split_conditions":[-2.6625376E-2,8.3335936E-1,5.7844555E-1,-7.239983E-1,4.8841444E-1,-1.1772839E0,8.826452E-2,-7.1867183E-3,-7.893559E-2,4.0345933E-2,-4.7405764E-2,-5.109605E-2,3.0227274E-2],"split_indices":[1,3,1,0,0,0,0,0,0,0,0,0,0],"split_type":[0,0,0,0,0,0,0,0,0,0,0,0,0],"sum_hessian":[4.237977E1,2.435534E1,1.8024431E1,1.6460857E1,7.8944826E0,1.3529022E1,4.4954085E0,4.974635E0,1.1486221E1,5.9565887E0,1.9378939E0,1.3768507E0,1.2152171E1],"tree_param":{"num_deleted":"0","num_feature":"4","num_nodes":"13","size_leaf_vector":"1"}},{"base_weights":[-1.4765558E-2,-1.7082506E-1,9.139647E-2,-3.5402182E-1,1.15774706E-1,-5.3646803E-2,-2.6771205E-3,-8.521267E-3,6.567958E-2],"categories":[],"categories_nodes":[],"categories_segments":[],"categories_sizes":[],"default_left":[0,0,0,0,0,0,0,0,0],"id":41,"left_children":[1,3,-1,5,7,-1,-1,-1,-1],"loss_changes":[6.4576097E0,2.0395646E0,0E0,1.3868163E0,1.7519641E0,0E0,0E0,0E0,0E0],"parents":[2147483647,0,0,1,1,3,3,4,4],"right_children":[2,4,-1,6,8,-1,-1,-1,-1],"split_conditions":[5.6040007E-1,-9.465555E-2,9.139647E-2,8.3335936E-1,1.0620245E0,-5.3646803E-2,-2.6771205E-3,-8.521267E-3,6.567958E-2],"split_indices":[1,1,0,3,3,0,0,0,0],"split_type":[0,0,0,0,0,0,0,0,0],"sum_hessian":[4.2477333E1,3.7065144E1,5.4121885E0,2.246811E1,1.4597034E1,1.4015165E1,8.452945E0,1.1257435E1,3.3395996E0],"tree_param":{"num_deleted":"0","num_feature":"4","num_nodes":"9","size_leaf_vector":"1"}},{"base_weights":[3.711982E-2,-6.730333E-2,8.551999E-2,4.4581383E-1,-2.4831194E-1,-1.0674384E-2,7.173099E-2,-6.0517687E-2,-9.256676E-3],"categories":[],"categories_nodes":[],"categories_segments":[],"categories_sizes":[],"default_left":[0,0,0,0,0,0,0,0,0],"id":42,"left_children":[1,3,-1,5,7,-1,-1,-1,-1],"loss_changes":[3.8176503E0,3.8221512E0,0E0,1.69349E0,1.6214945E0,0E0,0E0,0E0,0E0],"parents":[2147483647,0,0,1,1,3,3,4,4],"right_children":[2,4,-1,6,8,-1,-1,-1,-1],"split_conditions":[5.7844555E-1,-6.515777E-1,8.551999E-2,-1.1345474E0,-1.1443891E-1,-1.0674384E-2,7.173099E-2,-6.0517687E-2,-9.256676E-3],"split_indices":[1,0,0,0,0,0,0,0,0],"split_type":[0,0,0,0,0,0,0,0,0],"sum_hessian":[4.3015533E1,3.896022E1,4.055315E0,9.778242E0,2.9181978E1,3.4215076E0,6.3567343E0,7.989543E0,2.1192434E1],"tree_param":{"num_deleted":"0","num_feature":"4","num_nodes":"9","size_leaf_vector":"1"}},{"base_weights":[4.8863105E-2,-8.828518E-2,7.9862165E-1,-4.2211574E-1,1.4293025E-1,1.6092977E-2,9.0990715E-2,2.6049032E-3,-7.0312284E-2,-9.963336E-3,6.2215358E-2],"categories":[],"categories_nodes":[],"categories_segments":[],"categories_sizes":[],"default_left":[0,0,0,0,0,0,0,0,0,0,0],"id":43,"left_children":[1,3,5,7,9,-1,-1,-1,-1,-1,-1],"loss_changes":[4.2577653E0,2.7869148E0,3.0750132E-1,1.870558E0,2.5747733E0,0E0,0E0,0E0,0E0,0E0,0E0],"parents":[2147483647,0,0,1,1,2,2,3,3,4,4],"right_children":[2,4,6,8,10,-1,-1,-1,-1,-1,-1],"split_conditions":[4.906968E-1,-2.559239E-1,-9.185337E-1,-2.654822E-1,-9.465555E-2,1.6092977E-2,9.0990715E-2,2.6049032E-3,-7.0312284E-2,-9.963336E-3,6.2215358E-2],"split_indices":[1,3,2,1,1,0,0,0,0,0,0],"split_type":[0,0,0,0,0,0,0,0,0,0,0],"sum_hessian":[3.972096E1,3.4324463E1,5.3964944E0,1.3707637E1,2.0616827E1,1.1652771E0,4.2312174E0,5.632281E0,8.0753565E0,1.4214242E1,6.4025855E0],"tree_param":{"num_deleted":"0","num_feature":"4","num_nodes":"11","size_leaf_vector":"1"}},{"base_weights":[-5.8311258E-2,-1.04316175E-1,7.648004E-2,5.8643114E-2,-3.2414955E-1,-1.7295742E-2,5.77975E-2,-8.616663E-2,-4.1389912E-3],"categories":[],"categories_nodes":[],"categories_segments":[],"categories_sizes":[],"default_left":[0,0,0,0,0,0,0,0,0],"id":44,"left_children":[1,3,-1,5,7,-1,-1,-1,-1],"loss_changes":[1.571626E0,1.3871722E0,0E0,2.8398461E0,2.4587183E0,0E0,0E0,0E0,0E0],"parents":[2147483647,0,0,1,1,3,3,4,4],"right_children":[2,4,-1,6,8,-1,-1,-1,-1],"split_conditions":[1.5967654E0,2.9016307E-1,7.648004E-2,-2.559239E-1,-5.0252014E-1,-1.7295742E-2,5.77975E-2,-8.616663E-2,-4.1389912E-3],"split_indices":[3,3,0,3,0,0,0,0,0],"split_type":[0,0,0,0,0,0,0,0,0],"sum_hessian":[3.8396774E1,3.719136E1,1.2054138E0,2.1779655E1,1.5411705E1,1.5523693E1,6.2559633E0,4.606864E0,1.0804841E1],"tree_param":{"num_deleted":"0","num_feature":"4","num_nodes":"9","size_leaf_vector":"1"}},{"base_weights":[2.8636106E-3,-1.0010785E-1,8.255693E-2,-8.171307E-2,-1.5539407E-2,-2.4686014E-2,2.1967852E-2],"categories":[],"categories_nodes":[],"categories_segments":[],"categories_sizes":[],"default_left":[0,0,0,0,0,0,0],"id":45,"left_children":[1,3,-1,-1,5,-1,-1],"loss_changes":[3.4797692E0,2.202489E0,0E0,0E0,1.8877043E0,0E0,0E0],"parents":[2147483647,0,0,1,1,4,4],"right_children":[2,4,-1,-1,6,-1,-1],"split_conditions":[5.7844555E-1,-1.0227367E0,8.255693E-2,-8.171307E-2,-1.0246256E-2,-2.4686014E-2,2.1967852E-2],"split_indices":[1,1,0,0,3,0,0],"split_type":[0,0,0,0,0,0,0],"sum_hessian":[3.910051E1,3.5531624E1,3.5688884E0,2.834726E0,3.2696896E1,1.646006E1,1.6236835E1],"tree_param":{"num_deleted":"0","num_feature":"4","num_nodes":"7","size_leaf_vector":"1"}},{"base_weights":[-1.2597843E-1,-2.2621158E-1,8.075465E-2,-6.7125064E-1,-1.0045053E-1,-3.3650022E-2,-8.773968E-2,-1.9383272E-2,3.9927386E-2],"categories":[],"categories_nodes":[],"categories_segments":[],"categories_sizes":[],"default_left":[0,0,0,0,0,0,0,0,0],"id":46,"left_children":[1,3,-1,5,7,-1,-1,-1,-1],"loss_changes":[4.1070395E0,2.0960364E0,0E0,2.8032303E-1,1.5386868E0,0E0,0E0,0E0,0E0],"parents":[2147483647,0,0,1,1,3,3,4,4],"right_children":[2,4,-1,6,8,-1,-1,-1,-1],"split_conditions":[5.7844555E-1,-7.4896604E-1,8.075465E-2,-2.525467E-1,1.027397E0,-3.3650022E-2,-8.773968E-2,-1.9383272E-2,3.9927386E-2],"split_indices":[1,1,0,2,0,0,0,0,0],"split_type":[0,0,0,0,0,0,0,0,0],"sum_hessian":[4.0940334E1,3.7654976E1,3.285358E0,7.3406425E0,3.0314333E1,3.8008957E0,3.5397468E0,2.605721E1,4.2571216E0],"tree_param":{"num_deleted":"0","num_feature":"4","num_nodes":"9","size_leaf_vector":"1"}},{"base_weights":[7.517669E-2,-1.2720882E-2,8.190201E-2,-7.266304E-2,4.6247397E-2,3.5801314E-2,-7.881465E-3],"categories":[],"categories_nodes":[],"categories_segments":[],"categories_sizes":[],"default_left":[0,0,0,0,0,0,0],"id":47,"left_children":[1,3,-1,-1,5,-1,-1],"loss_changes":[2.7480843E0,1.6514976E0,0E0,0E0,1.4489957E0,0E0,0E0],"parents":[2147483647,0,0,1,1,4,4],"right_children":[2,4,-1,-1,6,-1,-1],"split_conditions":[5.6040007E-1,-1.0227367E0,8.190201E-2,-7.266304E-2,-6.515777E-1,3.5801314E-2,-7.881465E-3],"split_indices":[1,1,0,0,0,0,0],"split_type":[0,0,0,0,0,0,0],"sum_hessian":[4.0871838E1,3.743157E1,3.4402692E0,1.9920524E0,3.5439518E1,9.612913E0,2.5826603E1],"tree_param":{"num_deleted":"0","num_feature":"4","num_nodes":"7","size_leaf_vector":"1"}},{"base_weights":[-4.044708E-2,-5.1934355E-1,5.649353E-2,-7.618543E-2,1.1326596E-2,4.4845688E-1,-9.866486E-2,1.766173E-2,1.21833324E-1,-6.286497E-2,2.1110876E-3],"categories":[],"categories_nodes":[],"categories_segments":[],"categories_sizes":[],"default_left":[0,0,0,0,0,0,0,0,0,0,0],"id":48,"left_children":[1,3,5,-1,-1,7,9,-1,-1,-1,-1],"loss_changes":[1.8798971E0,1.1308471E0,2.1152241E0,0E0,0E0,1.8436238E0,1.6139355E0,0E0,0E0,0E0,0E0],"parents":[2147483647,0,0,1,1,2,2,5,5,6,6],"right_children":[2,4,6,-1,-1,8,10,-1,-1,-1,-1],"split_conditions":[-1.1000717E0,2.1215186E-1,-6.515777E-1,-7.618543E-2,1.1326596E-2,-7.098054E-1,-1.1253724E0,1.766173E-2,1.21833324E-1,-6.286497E-2,2.1110876E-3],"split_indices":[2,0,0,0,0,0,3,0,0,0,0],"split_type":[0,0,0,0,0,0,0,0,0,0,0],"sum_hessian":[3.8861645E1,5.8087068E0,3.305294E1,4.051327E0,1.7573793E0,8.837416E0,2.4215525E1,7.439851E0,1.397565E0,3.6806765E0,2.0534847E1],"tree_param":{"num_deleted":"0","num_feature":"4","num_nodes":"11","size_leaf_vector":"1"}},{"base_weights":[3.187759E-5,-6.2711924E-2,6.4048445E-1,-6.2033575E-2,-2.0995663E-2,1.05193056E-1,-8.544718E-3,7.7032074E-3,-2.1121543E-2],"categories":[],"categories_nodes":[],"categories_segments":[],"categories_sizes":[],"default_left":[0,0,0,0,0,0,0,0,0],"id":49,"left_children":[1,3,5,-1,7,-1,-1,-1,-1],"loss_changes":[1.6598561E0,8.6211056E-1,1.1907011E0,0E0,6.8825144E-1,0E0,0E0,0E0,0E0],"parents":[2147483647,0,0,1,1,2,2,4,4],"right_children":[2,4,6,-1,8,-1,-1,-1,-1],"split_conditions":[1.5265237E0,-1.542442E0,-2.525467E-1,-6.2033575E-2,4.755545E-1,1.05193056E-1,-8.544718E-3,7.7032074E-3,-2.1121543E-2],"split_indices":[3,2,2,0,0,0,0,0,0],"split_type":[0,0,0,0,0,0,0,0,0],"sum_hessian":[3.930641E1,3.662083E1,2.6855843E0,1.5835155E0,3.503731E1,1.4274516E0,1.2581327E0,2.3514435E1,1.1522879E1],"tree_param":{"num_deleted":"0","num_feature":"4","num_nodes":"9","size_leaf_vector":"1"}},{"base_weights":[-3.5021365E-2,-1.1921004E-1,7.741361E-2,2.206803E-1,-2.4852851E-1,-1.5273449E-2,1.0383302E-1,-3.1955354E-2,6.9220945E-2],"categories":[],"categories_nodes":[],"categories_segments":[],"categories_sizes":[],"default_left":[0,0,0,0,0,0,0,0,0],"id":50,"left_children":[1,3,-1,5,7,-1,-1,-1,-1],"loss_changes":[2.7779768E0,1.6625091E0,0E0,3.3981724E0,2.0229297E0,0E0,0E0,0E0,0E0],"parents":[2147483647,0,0,1,1,3,3,4,4],"right_children":[2,4,-1,6,8,-1,-1,-1,-1],"split_conditions":[5.7844555E-1,-7.379401E-1,7.741361E-2,7.022873E-1,1.6248494E0,-1.5273449E-2,1.0383302E-1,-3.1955354E-2,6.9220945E-2],"split_indices":[1,3,0,0,3,0,0,0,0],"split_type":[0,0,0,0,0,0,0,0,0],"sum_hessian":[3.8424793E1,3.557597E1,2.8488233E0,9.610365E0,2.5965605E1,7.155639E0,2.4547257E0,2.4756802E1,1.2088038E0],"tree_param":{"num_deleted":"0","num_feature":"4","num_nodes":"9","size_leaf_vector":"1"}},{"base_weights":[1.3322413E-2,-2.0480004E-1,1.6313288E-1,-8.509393E-2,-7.903708E-2,1.1420138E-1,4.001953E-2,-3.38532E-2,1.8498627E-2,-7.181355E-2,1.2642703E-2],"categories":[],"categories_nodes":[],"categories_segments":[],"categories_sizes":[],"default_left":[0,0,0,0,0,0,0,0,0,0,0],"id":51,"left_children":[1,3,5,7,-1,-1,9,-1,-1,-1,-1],"loss_changes":[1.3652431E0,1.1270828E0,2.933262E0,1.1076446E0,0E0,0E0,1.5971161E0,0E0,0E0,0E0,0E0],"parents":[2147483647,0,0,1,1,2,2,3,3,6,6],"right_children":[2,4,6,8,-1,-1,10,-1,-1,-1,-1],"split_conditions":[-2.559239E-1,-4.8304054E-1,-1.2775269E-1,-1.0454078E0,-7.903708E-2,1.1420138E-1,-1.0246256E-2,-3.38532E-2,1.8498627E-2,-7.181355E-2,1.2642703E-2],"split_indices":[3,3,3,3,0,0,3,0,0,0,0],"split_type":[0,0,0,0,0,0,0,0,0,0,0],"sum_hessian":[3.9757484E1,1.6038515E1,2.3718967E1,1.4267235E1,1.771281E0,1.725255E0,2.1993713E1,7.2296352E0,7.037599E0,1.50219E0,2.0491524E1],"tree_param":{"num_deleted":"0","num_feature":"4","num_nodes":"11","size_leaf_vector":"1"}},{"base_weights":[1.1265419E-1,-5.8295906E-1,1.8534145E-1,-7.5514996E-3,-7.379501E-2,-5.582903E-2,2.3808274E-1,3.1241393E-2,-3.2478236E-2],"categories":[],"categories_nodes":[],"categories_segments":[],"categories_sizes":[],"default_left":[0,0,0,0,0,0,0,0,0],"id":52,"left_children":[1,3,5,-1,-1,-1,7,-1,-1],"loss_changes":[2.1212614E0,2.5951564E-1,1.5765473E0,0E0,0E0,0E0,1.5688121E0,0E0,0E0],"parents":[2147483647,0,0,1,1,2,2,6,6],"right_children":[2,4,6,-1,-1,-1,8,-1,-1],"split_conditions":[-9.657808E-1,-2.1748324E-1,-1.542442E0,-7.5514996E-3,-7.379501E-2,-5.582903E-2,1.1932544E0,3.1241393E-2,-3.2478236E-2],"split_indices":[1,3,2,0,0,0,2,0,0],"split_type":[0,0,0,0,0,0,0,0,0],"sum_hessian":[3.8816574E1,3.0081966E0,3.5808376E1,1.0518007E0,1.956396E0,1.7366618E0,3.4071716E1,3.0490183E1,3.5815337E0],"tree_param":{"num_deleted":"0","num_feature":"4","num_nodes":"9","size_leaf_vector":"1"}},{"base_weights":[1.07375205E-1,-5.383865E-1,2.4310131E-1,-8.1155725E-2,-1.9402279E-1,1.3413686E-1,9.7536623E-1,8.042621E-2,-7.775915E-2,1.8815752E-2,-7.00702E-2,1.4982592E-1,3.0231738E-2],"categories":[],"categories_nodes":[],"categories_segments":[],"categories_sizes":[],"default_left":[0,0,0,0,0,0,0,0,0,0,0,0,0],"id":53,"left_children":[1,3,5,-1,7,9,11,-1,-1,-1,-1,-1,-1],"loss_changes":[3.5440903E0,5.080404E-1,2.491754E0,0E0,3.2141173E0,1.4744391E0,9.8925996E-1,0E0,0E0,0E0,0E0,0E0,0E0],"parents":[2147483647,0,0,1,1,2,2,4,4,5,5,6,6],"right_children":[2,4,6,-1,8,10,12,-1,-1,-1,-1,-1,-1],"split_conditions":[-7.4896604E-1,2.3774566E-2,1.229043E0,-8.1155725E-2,3.9073145E-1,1.076736E0,1.6091838E0,8.042621E-2,-7.775915E-2,1.8815752E-2,-7.00702E-2,1.4982592E-1,3.0231738E-2],"split_indices":[1,0,0,0,0,0,0,0,0,0,0,0,0],"split_type":[0,0,0,0,0,0,0,0,0,0,0,0,0],"sum_hessian":[3.7942787E1,6.0745234E0,3.1868265E1,2.630869E0,3.4436548E0,2.877029E1,3.0979733E0,1.1308984E0,2.3127563E0,2.774931E1,1.0209813E0,1.0534604E0,2.044513E0],"tree_param":{"num_deleted":"0","num_feature":"4","num_nodes":"13","size_leaf_vector":"1"}},{"base_weights":[-7.493275E-3,-2.7274254E-1,2.9876223E-1,2.3942602E-1,-4.8720753E-1,-4.1576106E-2,3.7383416E-1,-1.8760128E-3,7.481225E-2,-8.006839E-2,-5.2920533E-3,7.2517216E-2,2.0901188E-2],"categories":[],"categories_nodes":[],"categories_segments":[],"categories_sizes":[],"default_left":[0,0,0,0,0,0,0,0,0,0,0,0,0],"id":54,"left_children":[1,3,5,7,9,-1,11,-1,-1,-1,-1,-1,-1],"loss_changes":[3.2261248E0,2.4526615E0,1.1447675E0,9.264978E-1,2.0432112E0,0E0,8.454294E-1,0E0,0E0,0E0,0E0,0E0,0E0],"parents":[2147483647,0,0,1,1,2,2,3,3,4,4,6,6],"right_children":[2,4,6,8,10,-1,12,-1,-1,-1,-1,-1,-1],"split_conditions":[-6.297416E-2,-6.5902364E-1,-1.3750756E0,-7.590086E-1,4.669674E-1,-4.1576106E-2,-4.636067E-1,-1.8760128E-3,7.481225E-2,-8.006839E-2,-5.2920533E-3,7.2517216E-2,2.0901188E-2],"split_indices":[1,0,0,0,3,0,0,0,0,0,0,0,0],"split_type":[0,0,0,0,0,0,0,0,0,0,0,0,0],"sum_hessian":[3.7710857E1,2.0266972E1,1.7443886E1,5.9474206E0,1.4319551E1,1.2270299E0,1.6216856E1,4.5839715E0,1.363449E0,7.826538E0,6.4930134E0,4.0928164E0,1.212404E1],"tree_param":{"num_deleted":"0","num_feature":"4","num_nodes":"13","size_leaf_vector":"1"}},{"base_weights":[3.6449905E-2,-3.887867E-2,7.582673E-2,3.190443E-2,-6.230375E-1,-4.7796726E-2,1.1478203E-2,-9.990546E-2,2.284637E-2],"categories":[],"categories_nodes":[],"categories_segments":[],"categories_sizes":[],"default_left":[0,0,0,0,0,0,0,0,0],"id":55,"left_children":[1,3,-1,5,7,-1,-1,-1,-1],"loss_changes":[2.1131434E0,1.4940064E0,0E0,1.438757E0,1.477502E0,0E0,0E0,0E0,0E0],"parents":[2147483647,0,0,1,1,3,3,4,4],"right_children":[2,4,-1,6,8,-1,-1,-1,-1],"split_conditions":[5.7844555E-1,1.1932544E0,7.582673E-2,-1.099274E0,1.5224822E0,-4.7796726E-2,1.1478203E-2,-9.990546E-2,2.284637E-2],"split_indices":[1,2,0,0,2,0,0,0,0],"split_type":[0,0,0,0,0,0,0,0,0],"sum_hessian":[3.7321316E1,3.465126E1,2.670054E0,3.1749523E1,2.901737E0,3.7726488E0,2.7976875E1,1.8926635E0,1.0090734E0],"tree_param":{"num_deleted":"0","num_feature":"4","num_nodes":"9","size_leaf_vector":"1"}},{"base_weights":[-1.6042998E-2,-1.8359557E-1,5.060899E-1,-3.370084E-1,1.1226619E-1,-2.1529457E-2,6.42946E-1,4.0606175E-2,-4.526895E-2,5.2332472E-2,-2.1673974E-2,1.04955785E-1,2.7970856E-2],"categories":[],"categories_nodes":[],"categories_segments":[],"categories_sizes":[],"default_left":[0,0,0,0,0,0,0,0,0,0,0,0,0],"id":56,"left_children":[1,3,5,7,9,-1,11,-1,-1,-1,-1,-1,-1],"loss_changes":[3.206426E0,1.2940624E0,1.0182927E0,1.7720044E0,1.4930018E0,0E0,8.498907E-1,0E0,0E0,0E0,0E0,0E0,0E0],"parents":[2147483647,0,0,1,1,2,2,3,3,4,4,6,6],"right_children":[2,4,6,8,10,-1,12,-1,-1,-1,-1,-1,-1],"split_conditions":[1.6956548E-1,8.903095E-1,-1.2881001E0,-1.4359995E0,1.2845073E0,-2.1529457E-2,3.8355318E-1,4.0606175E-2,-4.526895E-2,5.2332472E-2,-2.1673974E-2,1.04955785E-1,2.7970856E-2],"split_indices":[1,3,2,3,3,0,1,0,0,0,0,0,0],"split_type":[0,0,0,0,0,0,0,0,0,0,0,0,0],"sum_hessian":[3.4589188E1,2.667693E1,7.912258E0,1.7476032E1,9.200897E0,1.1703035E0,6.741955E0,2.0160275E0,1.5460004E1,3.8278167E0,5.3730807E0,2.289552E0,4.452403E0],"tree_param":{"num_deleted":"0","num_feature":"4","num_nodes":"13","size_leaf_vector":"1"}},{"base_weights":[-1.0274652E-2,-7.8772195E-2,7.339042E-2,-1.2256495E-1,6.80093E-2,6.259025E-2,-1.6270457E-2],"categories":[],"categories_nodes":[],"categories_segments":[],"categories_sizes":[],"default_left":[0,0,0,0,0,0,0],"id":57,"left_children":[1,3,-1,5,-1,-1,-1],"loss_changes":[2.0676222E0,1.3132242E0,0E0,1.1784607E0,0E0,0E0,0E0],"parents":[2147483647,0,0,1,1,3,3],"right_children":[2,4,-1,6,-1,-1,-1],"split_conditions":[5.7844555E-1,1.6248494E0,7.339042E-2,-1.9438975E0,6.80093E-2,6.259025E-2,-1.6270457E-2],"split_indices":[1,3,0,0,0,0,0],"split_type":[0,0,0,0,0,0,0],"sum_hessian":[3.8427834E1,3.6007675E1,2.4201586E0,3.483585E1,1.1718254E0,1.0303419E0,3.3805508E1],"tree_param":{"num_deleted":"0","num_feature":"4","num_nodes":"7","size_leaf_vector":"1"}},{"base_weights":[1.2144347E-1,-3.547264E-1,2.581725E-1,-5.628025E-1,1.3013181E-1,4.4029257E-1,-4.6031508E-1,-8.092017E-2,-7.6564583E-3,5.9678685E-2,-4.5026165E-2,2.0791447E-2,7.825638E-2,-3.8409064E-5,-5.5245917E-2],"categories":[],"categories_nodes":[],"categories_segments":[],"categories_sizes":[],"default_left":[0,0,0,0,0,0,0,0,0,0,0,0,0,0,0],"id":58,"left_children":[1,3,5,7,9,11,13,-1,-1,-1,-1,-1,-1,-1,-1],"loss_changes":[2.414107E0,9.186083E-1,3.9049087E0,6.63002E-1,1.1701782E0,1.6732426E0,2.6298308E-1,0E0,0E0,0E0,0E0,0E0,0E0,0E0,0E0],"parents":[2147483647,0,0,1,1,2,2,3,3,4,4,5,5,6,6],"right_children":[2,4,6,8,10,12,14,-1,-1,-1,-1,-1,-1,-1,-1],"split_conditions":[-7.513118E-1,4.0628117E-1,9.412799E-1,-1.0186667E0,5.9695162E-2,7.6082635E-1,-3.7361717E-1,-8.092017E-2,-7.6564583E-3,5.9678685E-2,-4.5026165E-2,2.0791447E-2,7.825638E-2,-3.8409064E-5,-5.5245917E-2],"split_indices":[0,2,2,0,3,3,0,0,0,0,0,0,0,0,0],"split_type":[0,0,0,0,0,0,0,0,0,0,0,0,0,0,0],"sum_hessian":[3.467286E1,7.3793406E0,2.729352E1,5.0509686E0,2.328372E0,2.2083147E1,5.2103734E0,2.9114125E0,2.1395562E0,1.274992E0,1.0533799E0,1.41105385E1,7.9726086E0,1.0372385E0,4.173135E0],"tree_param":{"num_deleted":"0","num_feature":"4","num_nodes":"15","size_leaf_vector":"1"}},{"base_weights":[-2.6885493E-2,-1.1656343E-1,5.1739675E-1,-8.570596E-2,-4.6582367E-2,7.099913E-1,-1.8085333E-2,4.149637E-2,-1.8535184E-2,9.372609E-3,8.576127E-2],"categories":[],"categories_nodes":[],"categories_segments":[],"categories_sizes":[],"default_left":[0,0,0,0,0,0,0,0,0,0,0],"id":59,"left_children":[1,3,5,-1,7,9,-1,-1,-1,-1,-1],"loss_changes":[1.9176216E0,1.6953051E0,8.7698865E-1,0E0,2.1041398E0,3.3501625E-1,0E0,0E0,0E0,0E0,0E0],"parents":[2147483647,0,0,1,1,2,2,4,4,5,5],"right_children":[2,4,6,-1,8,10,-1,-1,-1,-1,-1],"split_conditions":[4.6778968E-1,-1.3750756E0,6.682337E-1,-8.570596E-2,-6.515777E-1,-1.074542E0,-1.8085333E-2,4.149637E-2,-1.8535184E-2,9.372609E-3,8.576127E-2],"split_indices":[1,0,3,0,0,3,0,0,0,0,0],"split_type":[0,0,0,0,0,0,0,0,0,0,0],"sum_hessian":[3.705179E1,3.248524E1,4.566547E0,1.8338245E0,3.0651417E1,3.5661108E0,1.0004361E0,6.6253266E0,2.4026089E1,1.0050993E0,2.5610116E0],"tree_param":{"num_deleted":"0","num_feature":"4","num_nodes":"11","size_leaf_vector":"1"}},{"base_weights":[3.430343E-2,-2.9645832E-2,7.323422E-2,1.5166986E-1,-2.1696563E-1,-7.003002E-2,2.9700046E-2,-7.270403E-2,1.6681604E-3],"categories":[],"categories_nodes":[],"categories_segments":[],"categories_sizes":[],"default_left":[0,0,0,0,0,0,0,0,0],"id":60,"left_children":[1,3,-1,5,7,-1,-1,-1,-1],"loss_changes":[1.7529345E0,1.2722198E0,0E0,2.576641E0,2.2000816E0,0E0,0E0,0E0,0E0],"parents":[2147483647,0,0,1,1,3,3,4,4],"right_children":[2,4,-1,6,8,-1,-1,-1,-1],"split_conditions":[5.6040007E-1,-6.444673E-2,7.323422E-2,-1.099274E0,4.0628117E-1,-7.003002E-2,2.9700046E-2,-7.270403E-2,1.6681604E-3],"split_indices":[1,2,0,0,2,0,0,0,0],"split_type":[0,0,0,0,0,0,0,0,0],"sum_hessian":[3.7782703E1,3.5488987E1,2.2937148E0,1.8130213E1,1.7358774E1,2.085535E0,1.6044678E1,4.790012E0,1.2568763E1],"tree_param":{"num_deleted":"0","num_feature":"4","num_nodes":"9","size_leaf_vector":"1"}},{"base_weights":[-7.7144064E-2,-1.3717632E-1,6.8376936E-2,6.394258E-2,-1.7765896E-1,-7.782268E-4,-3.4612637E-2],"categories":[],"categories_nodes":[],"categories_segments":[],"categories_sizes":[],"default_left":[0,0,0,0,0,0,0],"id":61,"left_children":[1,3,-1,-1,5,-1,-1],"loss_changes":[1.8468235E0,1.2580808E0,0E0,0E0,1.0099016E0,0E0,0E0],"parents":[2147483647,0,0,1,1,4,4],"right_children":[2,4,-1,-1,6,-1,-1],"split_conditions":[5.7844555E-1,-1.77875E0,6.8376936E-2,6.394258E-2,-6.444673E-2,-7.782268E-4,-3.4612637E-2],"split_indices":[1,0,0,0,2,0,0],"split_type":[0,0,0,0,0,0,0],"sum_hessian":[3.7376778E1,3.540335E1,1.9734259E0,1.0210415E0,3.438231E1,1.764047E1,1.674184E1],"tree_param":{"num_deleted":"0","num_feature":"4","num_nodes":"7","size_leaf_vector":"1"}},{"base_weights":[1.4880043E-1,-6.175654E-2,1.952924E-1,-5.465235E-2,3.5684648E-1,4.7925852E-2,-2.6279286E-2,6.1524104E-2,-1.951543E-2],"categories":[],"categories_nodes":[],"categories_segments":[],"categories_sizes":[],"default_left":[0,0,0,0,0,0,0,0,0],"id":62,"left_children":[1,-1,3,5,7,-1,-1,-1,-1],"loss_changes":[1.4358976E0,0E0,1.4555537E0,1.7739253E0,3.220116E0,0E0,0E0,0E0,0E0],"parents":[2147483647,0,0,2,2,3,3,4,4],"right_children":[2,-1,4,6,8,-1,-1,-1,-1],"split_conditions":[-1.1102037E0,-6.175654E-2,-2.559239E-1,-1.3582516E0,1.3039311E0,4.7925852E-2,-2.6279286E-2,6.1524104E-2,-1.951543E-2],"split_indices":[1,0,3,3,3,0,0,0,0],"split_type":[0,0,0,0,0,0,0,0,0],"sum_hessian":[3.5915443E1,1.3516585E0,3.4563786E1,1.3829498E1,2.0734287E1,3.51372E0,1.0315778E1,1.4045123E1,6.6891646E0],"tree_param":{"num_deleted":"0","num_feature":"4","num_nodes":"9","size_leaf_vector":"1"}},{"base_weights":[-7.44354E-2,1.4060667E-1,-3.3836225E-1,3.4227956E-2,8.851237E-2,2.9352E-2,-4.986362E-1,1.1130524E-2,-5.0715137E-2,-4.5440998E-2,3.297923E-2,-7.644432E-2,-6.149734E-3],"categories":[],"categories_nodes":[],"categories_segments":[],"categories_sizes":[],"default_left":[0,0,0,0,0,0,0,0,0,0,0,0,0],"id":63,"left_children":[1,3,5,7,-1,9,11,-1,-1,-1,-1,-1,-1],"loss_changes":[2.1395319E0,1.6342659E0,1.0072299E0,8.672112E-1,0E0,1.0301876E0,1.3223681E0,0E0,0E0,0E0,0E0,0E0,0E0],"parents":[2147483647,0,0,1,1,2,2,3,3,5,5,6,6],"right_children":[2,4,6,8,-1,10,12,-1,-1,-1,-1,-1,-1],"split_conditions":[2.9016307E-1,1.2059265E-1,-7.943907E-1,1.3318603E0,8.851237E-2,7.6082635E-1,5.875051E-1,1.1130524E-2,-5.0715137E-2,-4.5440998E-2,3.297923E-2,-7.644432E-2,-6.149734E-3],"split_indices":[3,3,2,0,0,3,2,0,0,0,0,0,0],"split_type":[0,0,0,0,0,0,0,0,0,0,0,0,0],"sum_hessian":[3.5859165E1,2.0016993E1,1.5842174E1,1.842968E1,1.5873119E0,5.056949E0,1.0785225E1,1.6828217E1,1.6014631E0,1.7410581E0,3.315891E0,6.241357E0,4.5438676E0],"tree_param":{"num_deleted":"0","num_feature":"4","num_nodes":"13","size_leaf_vector":"1"}},{"base_weights":[5.273192E-2,3.1129098E-3,6.6500574E-2,6.839383E-2,-6.3804287E-1,3.8289033E-2,-8.90801E-3,-1.35554345E-2,-8.70206E-2],"categories":[],"categories_nodes":[],"categories_segments":[],"categories_sizes":[],"default_left":[0,0,0,0,0,0,0,0,0],"id":64,"left_children":[1,3,-1,5,7,-1,-1,-1,-1],"loss_changes":[1.147792E0,1.5511024E0,0E0,1.6977079E0,2.8160024E-1,0E0,0E0,0E0,0E0],"parents":[2147483647,0,0,1,1,3,3,4,4],"right_children":[2,4,-1,6,8,-1,-1,-1,-1],"split_conditions":[5.7844555E-1,1.1932544E0,6.6500574E-2,-4.9865115E-1,2.4696258E-1,3.8289033E-2,-8.90801E-3,-1.35554345E-2,-8.70206E-2],"split_indices":[1,2,0,1,3,0,0,0,0],"split_type":[0,0,0,0,0,0,0,0,0],"sum_hessian":[3.684878E1,3.501614E1,1.832643E0,3.2591118E1,2.425021E0,1.0396489E1,2.219463E1,1.2668831E0,1.1581379E0],"tree_param":{"num_deleted":"0","num_feature":"4","num_nodes":"9","size_leaf_vector":"1"}},{"base_weights":[1.3290621E-1,-6.508227E-2,1.9533575E-1,3.559391E-1,-1.1521835E-2,1.2055857E-2,8.165854E-2,-4.5210656E-2,1.9845814E-2],"categories":[],"categories_nodes":[],"categories_segments":[],"categories_sizes":[],"default_left":[0,0,0,0,0,0,0,0,0],"id":65,"left_children":[1,-1,3,5,7,-1,-1,-1,-1],"loss_changes":[1.9187715E0,0E0,1.1564248E0,2.0220802E0,1.5818256E0,0E0,0E0,0E0,0E0],"parents":[2147483647,0,0,2,2,3,3,4,4],"right_children":[2,-1,4,6,8,-1,-1,-1,-1],"split_conditions":[-1.4426126E0,-6.508227E-2,2.9016307E-1,-2.559239E-1,8.903095E-1,1.2055857E-2,8.165854E-2,-4.5210656E-2,1.9845814E-2],"split_indices":[2,0,3,3,3,0,0,0,0],"split_type":[0,0,0,0,0,0,0,0,0],"sum_hessian":[3.5618073E1,1.9325297E0,3.3685543E1,1.8557152E1,1.5128391E1,1.3116575E1,5.4405766E0,4.5107465E0,1.0617644E1],"tree_param":{"num_deleted":"0","num_feature":"4","num_nodes":"9","size_leaf_vector":"1"}},{"base_weights":[-1.3355137E-1,-2.1611421E-1,3.1202188E-1,1.1284091E-1,-3.777767E-1,8.0305177E-1,-2.635025E-1,-9.93401E-3,7.543477E-2,-8.570066E-2,-2.4967393E-2,1.8119508E-2,1.1256584E-1,-6.7981265E-2,2.0492045E-2],"categories":[],"categories_nodes":[],"categories_segments":[],"categories_sizes":[],"default_left":[0,0,0,0,0,0,0,0,0,0,0,0,0,0,0],"id":66,"left_children":[1,3,5,7,9,11,13,-1,-1,-1,-1,-1,-1,-1,-1],"loss_changes":[1.4866061E0,1.804864E0,2.0315318E0,1.6659961E0,1.1641462E0,5.427506E-1,8.6431664E-1,0E0,0E0,0E0,0E0,0E0,0E0,0E0,0E0],"parents":[2147483647,0,0,1,1,2,2,3,3,4,4,5,5,6,6],"right_children":[2,4,6,8,10,12,14,-1,-1,-1,-1,-1,-1,-1,-1],"split_conditions":[9.79056E-1,-6.515777E-1,1.4062935E0,-7.513118E-1,-1.0595833E0,1.229043E0,1.7674234E0,-9.93401E-3,7.543477E-2,-8.570066E-2,-2.4967393E-2,1.8119508E-2,1.1256584E-1,-6.7981265E-2,2.0492045E-2],"split_indices":[0,0,0,0,3,0,0,0,0,0,0,0,0,0,0],"split_type":[0,0,0,0,0,0,0,0,0,0,0,0,0,0,0],"sum_hessian":[3.757731E1,3.2137367E1,5.4399424E0,1.0689034E1,2.1448332E1,2.7221231E0,2.7178195E0,8.667401E0,2.0216334E0,3.323857E0,1.8124474E1,1.4632401E0,1.2588829E0,1.2000221E0,1.5177972E0],"tree_param":{"num_deleted":"0","num_feature":"4","num_nodes":"15","size_leaf_vector":"1"}},{"base_weights":[-6.88709E-2,-4.1137272E-1,1.05914086E-1,-5.7710254E-1,5.9351433E-2,2.0990291E-1,-3.527104E-1,-1.5622646E-3,-6.989141E-2,2.9759554E-3,4.836587E-2,4.019571E-2,-6.680277E-2],"categories":[],"categories_nodes":[],"categories_segments":[],"categories_sizes":[],"default_left":[0,0,0,0,0,0,0,0,0,0,0,0,0],"id":67,"left_children":[1,3,5,7,-1,9,11,-1,-1,-1,-1,-1,-1],"loss_changes":[2.2962399E0,2.494107E0,1.3002068E0,7.822764E-1,0E0,1.0500844E0,1.4881023E0,0E0,0E0,0E0,0E0,0E0,0E0],"parents":[2147483647,0,0,1,1,2,2,3,3,5,5,6,6],"right_children":[2,4,6,8,-1,10,12,-1,-1,-1,-1,-1,-1],"split_conditions":[-5.732749E-1,1.4297702E0,1.3039311E0,-1.4129996E0,5.9351433E-2,6.892279E-1,-2.525467E-1,-1.5622646E-3,-6.989141E-2,2.9759554E-3,4.836587E-2,4.019571E-2,-6.680277E-2],"split_indices":[2,3,3,2,0,2,2,0,0,0,0,0,0],"split_type":[0,0,0,0,0,0,0,0,0,0,0,0,0],"sum_hessian":[3.6629684E1,1.1919367E1,2.4710316E1,1.059732E1,1.3220468E0,2.0585148E1,4.1251693E0,2.090337E0,8.506983E0,1.3084004E1,7.501143E0,1.1346866E0,2.9904828E0],"tree_param":{"num_deleted":"0","num_feature":"4","num_nodes":"13","size_leaf_vector":"1"}},{"base_weights":[1.3565878E-2,-1.518866E-1,3.216445E-1,-4.5498312E-1,3.6722675E-2,-6.650968E-2,5.079737E-1,-1.6024292E-2,-8.023678E-2,1.5628878E-2,-6.359381E-2,7.23659E-2,-2.9048488E-2],"categories":[],"categories_nodes":[],"categories_segments":[],"categories_sizes":[],"default_left":[0,0,0,0,0,0,0,0,0,0,0,0,0],"id":68,"left_children":[1,3,5,7,9,-1,11,-1,-1,-1,-1,-1,-1],"loss_changes":[1.9289311E0,1.4273611E0,2.7662873E0,8.482071E-1,1.3971757E0,0E0,2.2212045E0,0E0,0E0,0E0,0E0,0E0,0E0],"parents":[2147483647,0,0,1,1,2,2,3,3,4,4,6,6],"right_children":[2,4,6,8,10,-1,12,-1,-1,-1,-1,-1,-1],"split_conditions":[4.0628117E-1,-2.559239E-1,-7.4896604E-1,-7.329394E-1,1.286943E-1,-6.650968E-2,1.1932544E0,-1.6024292E-2,-8.023678E-2,1.5628878E-2,-6.359381E-2,7.23659E-2,-2.9048488E-2],"split_indices":[2,3,1,3,2,0,2,0,0,0,0,0,0],"split_type":[0,0,0,0,0,0,0,0,0,0,0,0,0],"sum_hessian":[3.5884247E1,2.3676085E1,1.2208164E1,8.539975E0,1.5136109E1,1.530999E0,1.0677165E1,5.4106045E0,3.1293702E0,1.3503505E1,1.6326048E0,8.480131E0,2.1970341E0],"tree_param":{"num_deleted":"0","num_feature":"4","num_nodes":"13","size_leaf_vector":"1"}},{"base_weights":[-1.9802945E-2,2.5201714E-1,-2.634403E-1,-3.0316034E-1,4.804744E-1,3.868789E-1,-3.7443933E-1,-7.3913716E-2,2.0524848E-2,-2.4862157E-2,6.355735E-2,7.6608597E-3,5.0650485E-2,-5.192119E-2,2.9735932E-2],"categories":[],"categories_nodes":[],"categories_segments":[],"categories_sizes":[],"default_left":[0,0,0,0,0,0,0,0,0,0,0,0,0,0,0],"id":69,"left_children":[1,3,5,7,9,11,13,-1,-1,-1,-1,-1,-1,-1,-1],"loss_changes":[2.3830059E0,2.307569E0,1.5117213E0,1.3890696E0,1.5673299E0,8.19222E-2,1.776943E0,0E0,0E0,0E0,0E0,0E0,0E0,0E0,0E0],"parents":[2147483647,0,0,1,1,2,2,3,3,4,4,5,5,6,6],"right_children":[2,4,6,8,10,12,14,-1,-1,-1,-1,-1,-1,-1,-1],"split_conditions":[-2.525467E-1,-1.1454606E0,-1.099274E0,-3.079839E-1,-9.10546E-1,-1.5858958E0,1.2164817E0,-7.3913716E-2,2.0524848E-2,-2.4862157E-2,6.355735E-2,7.6608597E-3,5.0650485E-2,-5.192119E-2,2.9735932E-2],"split_indices":[2,2,0,0,0,0,0,0,0,0,0,0,0,0,0],"split_type":[0,0,0,0,0,0,0,0,0,0,0,0,0,0,0],"sum_hessian":[3.3980682E1,1.6045135E1,1.7935549E1,4.5823956E0,1.1462739E1,2.2526038E0,1.5682945E1,2.222611E0,2.3597846E0,1.9049386E0,9.5578E0,1.0832949E0,1.1693089E0,1.3089327E1,2.5936177E0],"tree_param":{"num_deleted":"0","num_feature":"4","num_nodes":"15","size_leaf_vector":"1"}},{"base_weights":[1.04628175E-1,-7.111373E-2,1.7121921E-1,8.968026E-2,6.456507E-1,-8.017647E-3,4.7629267E-2,1.18390685E-2,7.53959E-2],"categories":[],"categories_nodes":[],"categories_segments":[],"categories_sizes":[],"default_left":[0,0,0,0,0,0,0,0,0],"id":70,"left_children":[1,-1,3,5,7,-1,-1,-1,-1],"loss_changes":[2.1216366E0,0E0,1.2899607E0,2.0669327E0,1.933415E-1,0E0,0E0,0E0,0E0],"parents":[2147483647,0,0,2,2,3,3,4,4],"right_children":[2,-1,4,6,8,-1,-1,-1,-1],"split_conditions":[-1.0227367E0,-7.111373E-2,4.6778968E-1,8.903095E-1,-1.074542E0,-8.017647E-3,4.7629267E-2,1.18390685E-2,7.53959E-2],"split_indices":[1,0,1,3,3,0,0,0,0],"split_type":[0,0,0,0,0,0,0,0,0],"sum_hessian":[3.5814766E1,1.9724416E0,3.3842327E1,2.9893633E1,3.9486923E0,2.1319576E1,8.574059E0,1.0295906E0,2.9191017E0],"tree_param":{"num_deleted":"0","num_feature":"4","num_nodes":"9","size_leaf_vector":"1"}},{"base_weights":[-1.2759568E-1,-2.2374903E-1,7.04898E-2,-8.241082E-2,-3.967165E-1,-2.6265813E-2,6.033298E-2,-6.1622333E-2,2.7120112E-2],"categories":[],"categories_nodes":[],"categories_segments":[],"categories_sizes":[],"default_left":[0,0,0,0,0,0,0,0,0],"id":71,"left_children":[1,3,-1,5,7,-1,-1,-1,-1],"loss_changes":[2.9751575E0,7.5723374E-1,0E0,2.512361E0,2.2589817E0,0E0,0E0,0E0,0E0],"parents":[2147483647,0,0,1,1,3,3,4,4],"right_children":[2,4,-1,6,8,-1,-1,-1,-1],"split_conditions":[4.906968E-1,-1.7107405E-1,7.04898E-2,-2.8515357E-1,1.0620245E0,-2.6265813E-2,6.033298E-2,-6.1622333E-2,2.7120112E-2],"split_indices":[1,1,0,1,3,0,0,0,0],"split_type":[0,0,0,0,0,0,0,0,0],"sum_hessian":[3.419726E1,3.131195E1,2.8853126E0,1.8043985E1,1.3267965E1,1.4776854E1,3.2671323E0,1.0044351E1,3.2236147E0],"tree_param":{"num_deleted":"0","num_feature":"4","num_nodes":"9","size_leaf_vector":"1"}},{"base_weights":[-6.5124966E-2,-5.620058E-1,7.0640743E-3,-6.731125E-2,-8.585175E-3,3.637594E-1,-1.2830116E-1,7.0466176E-2,-1.9733857E-2,-2.4659894E-3,-4.7873296E-2],"categories":[],"categories_nodes":[],"categories_segments":[],"categories_sizes":[],"default_left":[0,0,0,0,0,0,0,0,0,0,0],"id":72,"left_children":[1,3,5,-1,-1,7,9,-1,-1,-1,-1],"loss_changes":[1.2979343E0,1.8496752E-1,1.6152179E0,0E0,0E0,1.8983576E0,8.703233E-1,0E0,0E0,0E0,0E0],"parents":[2147483647,0,0,1,1,2,2,5,5,6,6],"right_children":[2,4,6,-1,-1,8,10,-1,-1,-1,-1],"split_conditions":[-1.3013539E0,1.4651117E-1,-6.515777E-1,-6.731125E-2,-8.585175E-3,4.586603E-1,1.3039311E0,7.0466176E-2,-1.9733857E-2,-2.4659894E-3,-4.7873296E-2],"split_indices":[2,0,0,0,0,3,3,0,0,0,0],"split_type":[0,0,0,0,0,0,0,0,0,0,0],"sum_hessian":[3.507437E1,3.5886073E0,3.1485762E1,2.5742764E0,1.0143309E0,8.197535E0,2.3288229E1,4.9401937E0,3.257341E0,1.8798798E1,4.489431E0],"tree_param":{"num_deleted":"0","num_feature":"4","num_nodes":"11","size_leaf_vector":"1"}},{"base_weights":[1.607195E-1,-5.6464612E-2,2.034738E-1,2.529317E-1,-2.5148338E-1,-1.3403259E-2,3.8706303E-2,-7.412245E-2,4.4617333E-2],"categories":[],"categories_nodes":[],"categories_segments":[],"categories_sizes":[],"default_left":[0,0,0,0,0,0,0,0,0],"id":73,"left_children":[1,-1,3,5,7,-1,-1,-1,-1],"loss_changes":[1.2248986E0,0E0,8.406911E-1,1.6945126E0,1.6589974E0,0E0,0E0,0E0,0E0],"parents":[2147483647,0,0,2,2,3,3,4,4],"right_children":[2,-1,4,6,8,-1,-1,-1,-1],"split_conditions":[-1.542442E0,-5.6464612E-2,1.1932544E0,-8.4544975E-1,1.4623462E0,-1.3403259E-2,3.8706303E-2,-7.412245E-2,4.4617333E-2],"split_indices":[2,0,2,3,2,0,0,0,0],"split_type":[0,0,0,0,0,0,0,0,0],"sum_hessian":[3.479226E1,1.2571309E0,3.353513E1,3.0647524E1,2.8876061E0,7.8889375E0,2.2758587E1,1.6599239E0,1.2276822E0],"tree_param":{"num_deleted":"0","num_feature":"4","num_nodes":"9","size_leaf_vector":"1"}},{"base_weights":[8.0563575E-3,-6.39221E-2,5.4750186E-1,3.4194842E-2,-4.9339706E-1,8.068331E-2,-1.5210904E-2,1.1295282E-2,-5.715067E-2,-7.475585E-2,1.8989932E-2],"categories":[],"categories_nodes":[],"categories_segments":[],"categories_sizes":[],"default_left":[0,0,0,0,0,0,0,0,0,0,0],"id":74,"left_children":[1,3,5,7,9,-1,-1,-1,-1,-1,-1],"loss_changes":[1.4236028E0,1.3841887E0,9.055309E-1,1.3691938E0,1.2011944E0,0E0,0E0,0E0,0E0,0E0,0E0],"parents":[2147483647,0,0,1,1,2,2,3,3,4,4],"right_children":[2,4,6,8,10,-1,-1,-1,-1,-1,-1],"split_conditions":[4.6778968E-1,9.412799E-1,3.8776585E-1,3.0040947E-1,1.3778965E-2,8.068331E-2,-1.5210904E-2,1.1295282E-2,-5.715067E-2,-7.475585E-2,1.8989932E-2],"split_indices":[1,2,3,1,1,0,0,0,0,0,0],"split_type":[0,0,0,0,0,0,0,0,0,0,0],"sum_hessian":[3.4762573E1,3.1447962E1,3.3146117E0,2.6348759E1,5.099202E0,2.3064125E0,1.0081992E0,2.4036823E1,2.3119354E0,3.6481686E0,1.4510332E0],"tree_param":{"num_deleted":"0","num_feature":"4","num_nodes":"11","size_leaf_vector":"1"}},{"base_weights":[7.602905E-3,-6.1902113E-2,4.701467E-2,8.171501E-3,6.037221E-2,5.401186E-3,-6.425347E-2],"categories":[],"categories_nodes":[],"categories_segments":[],"categories_sizes":[],"default_left":[0,0,0,0,0,0,0],"id":75,"left_children":[1,-1,3,5,-1,-1,-1],"loss_changes":[9.901654E-1,0E0,8.068812E-1,1.1117246E0,0E0,0E0,0E0],"parents":[2147483647,0,0,2,2,3,3],"right_children":[2,-1,4,6,-1,-1,-1],"split_conditions":[-1.1102037E0,-6.1902113E-2,5.7844555E-1,4.905018E-1,6.037221E-2,5.401186E-3,-6.425347E-2],"split_indices":[1,0,1,1,0,0,0],"split_type":[0,0,0,0,0,0,0],"sum_hessian":[3.7915142E1,1.3733394E0,3.6541805E1,3.5106964E1,1.4348412E0,3.3653187E1,1.4537743E0],"tree_param":{"num_deleted":"0","num_feature":"4","num_nodes":"7","size_leaf_vector":"1"}},{"base_weights":[1.642406E-2,-1.767965E-1,3.263338E-1,1.8233899E-2,-3.6082798E-1,8.9542694E-2,-3.08504E-3,-1.4551344E-2,7.934663E-2,-4.4873204E-2,2.336961E-2,-2.0398907E-2,3.545272E-2],"categories":[],"categories_nodes":[],"categories_segments":[],"categories_sizes":[],"default_left":[0,0,0,0,0,0,0,0,0,0,0,0,0],"id":76,"left_children":[1,3,5,7,9,-1,11,-1,-1,-1,-1,-1,-1],"loss_changes":[2.128649E0,7.9445326E-1,2.5585647E0,1.5891485E0,6.976266E-1,0E0,7.642962E-1,0E0,0E0,0E0,0E0,0E0,0E0],"parents":[2147483647,0,0,1,1,2,2,3,3,4,4,6,6],"right_children":[2,4,6,8,10,-1,12,-1,-1,-1,-1,-1,-1],"split_conditions":[-6.297416E-2,-4.9865115E-1,-7.329394E-1,1.521778E0,1.1235168E0,8.9542694E-2,5.365728E-1,-1.4551344E-2,7.934663E-2,-4.4873204E-2,2.336961E-2,-2.0398907E-2,3.545272E-2],"split_indices":[1,1,3,3,0,0,0,0,0,0,0,0,0],"split_type":[0,0,0,0,0,0,0,0,0,0,0,0,0],"sum_hessian":[3.3584534E1,2.0951406E1,1.2633128E1,1.0609128E1,1.0342279E1,4.0017076E0,8.631421E0,9.429659E0,1.179469E0,9.223721E0,1.1185589E0,5.801666E0,2.829755E0],"tree_param":{"num_deleted":"0","num_feature":"4","num_nodes":"13","size_leaf_vector":"1"}},{"base_weights":[2.5581433E-2,-1.4321166E-1,1.8454069E-1,4.717987E-2,-2.1171005E-1,8.5692726E-2,4.8104547E-2,-4.6564924E-4,-4.9836352E-2,-6.1993014E-2,1.7924411E-2],"categories":[],"categories_nodes":[],"categories_segments":[],"categories_sizes":[],"default_left":[0,0,0,0,0,0,0,0,0,0,0],"id":77,"left_children":[1,3,5,-1,7,-1,9,-1,-1,-1,-1],"loss_changes":[9.8969674E-1,8.5712034E-1,1.6950123E0,0E0,9.985937E-1,0E0,1.5822811E0,0E0,0E0,0E0,0E0],"parents":[2147483647,0,0,1,1,2,2,4,4,6,6],"right_children":[2,4,6,-1,8,-1,10,-1,-1,-1,-1],"split_conditions":[-1.1443891E-1,-1.8472542E0,8.027773E-2,4.717987E-2,3.115838E-1,8.5692726E-2,2.2856209E-1,-4.6564924E-4,-4.9836352E-2,-6.1993014E-2,1.7924411E-2],"split_indices":[0,0,0,0,2,0,0,0,0,0,0],"split_type":[0,0,0,0,0,0,0,0,0,0,0],"sum_hessian":[3.490102E1,1.6974976E1,1.7926046E1,1.111117E0,1.5863858E1,2.1330628E0,1.5792983E1,9.800833E0,6.0630255E0,1.9799113E0,1.3813071E1],"tree_param":{"num_deleted":"0","num_feature":"4","num_nodes":"11","size_leaf_vector":"1"}},{"base_weights":[7.161078E-2,1.3623641E-1,-5.833468E-1,6.941924E-2,9.922863E-2,-9.076049E-2,7.578838E-3,1.9507335E-2,-3.4668203E-2],"categories":[],"categories_nodes":[],"categories_segments":[],"categories_sizes":[],"default_left":[0,0,0,0,0,0,0,0,0],"id":78,"left_children":[1,3,5,7,-1,-1,-1,-1,-1],"loss_changes":[1.5583584E0,1.7964991E0,7.799158E-1,1.7055185E0,0E0,0E0,0E0,0E0,0E0],"parents":[2147483647,0,0,1,1,2,2,3,3],"right_children":[2,4,6,8,-1,-1,-1,-1,-1],"split_conditions":[1.4062935E0,1.229043E0,1.8471365E0,4.688824E-1,9.922863E-2,-9.076049E-2,7.578838E-3,1.9507335E-2,-3.4668203E-2],"split_indices":[0,0,0,0,0,0,0,0,0],"split_type":[0,0,0,0,0,0,0,0,0],"sum_hessian":[3.3939487E1,3.1612253E1,2.327236E0,3.032629E1,1.2859623E0,1.3072015E0,1.0200344E0,2.3700432E1,6.6258597E0],"tree_param":{"num_deleted":"0","num_feature":"4","num_nodes":"9","size_leaf_vector":"1"}},{"base_weights":[-6.015071E-3,-4.775045E-2,5.9634008E-2,-8.711829E-2,6.053127E-2,4.399288E-3,-2.5495743E-2],"categories":[],"categories_nodes":[],"categories_segments":[],"categories_sizes":[],"default_left":[0,0,0,0,0,0,0],"id":79,"left_children":[1,3,-1,5,-1,-1,-1],"loss_changes":[9.302653E-1,9.390211E-1,0E0,7.459198E-1,0E0,0E0,0E0],"parents":[2147483647,0,0,1,1,3,3],"right_children":[2,4,-1,6,-1,-1,-1],"split_conditions":[5.7844555E-1,1.6248494E0,5.9634008E-2,2.9016307E-1,6.053127E-2,4.399288E-3,-2.5495743E-2],"split_indices":[1,3,0,3,0,0,0],"split_type":[0,0,0,0,0,0,0],"sum_hessian":[3.48714E1,3.3472893E1,1.398509E0,3.2387135E1,1.0857553E0,1.8597322E1,1.3789813E1],"tree_param":{"num_deleted":"0","num_feature":"4","num_nodes":"7","size_leaf_vector":"1"}},{"base_weights":[-5.836018E-2,-5.242426E-1,6.890432E-2,-2.0575063E-1,-8.513189E-2,8.840734E-2,-1.9906597E-2,1.4660515E-2,-6.617404E-2,-6.961583E-2,9.14242E-3],"categories":[],"categories_nodes":[],"categories_segments":[],"categories_sizes":[],"default_left":[0,0,0,0,0,0,0,0,0,0,0],"id":80,"left_children":[1,3,5,7,-1,-1,9,-1,-1,-1,-1],"loss_changes":[2.116038E0,6.2101173E-1,2.0763423E0,9.310528E-1,0E0,0E0,2.0679133E0,0E0,0E0,0E0,0E0],"parents":[2147483647,0,0,1,1,2,2,3,3,6,6],"right_children":[2,4,6,8,-1,-1,10,-1,-1,-1,-1],"split_conditions":[-6.8862003E-1,-7.7492666E-1,-5.6523246E-1,4.445148E-1,-8.513189E-2,8.840734E-2,-1.3013539E0,1.4660515E-2,-6.617404E-2,-6.961583E-2,9.14242E-3],"split_indices":[1,1,1,0,0,0,2,0,0,0,0],"split_type":[0,0,0,0,0,0,0,0,0,0,0],"sum_hessian":[3.4080204E1,6.6429105E0,2.7437292E1,4.190983E0,2.451928E0,1.815824E0,2.562147E1,2.746882E0,1.4441007E0,2.8792298E0,2.2742239E1],"tree_param":{"num_deleted":"0","num_feature":"4","num_nodes":"11","size_leaf_vector":"1"}},{"base_weights":[2.5728388E-2,-1.6560698E-1,1.6103372E-1,2.4504708E-1,-4.042934E-1,6.7039125E-2,5.577694E-2,-1.5054039E-2,9.441697E-2,-5.8222033E-2,3.2385554E-2,-6.527575E-3,4.009409E-2],"categories":[],"categories_nodes":[],"categories_segments":[],"categories_sizes":[],"default_left":[0,0,0,0,0,0,0,0,0,0,0,0,0],"id":81,"left_children":[1,3,5,7,9,-1,11,-1,-1,-1,-1,-1,-1],"loss_changes":[9.349596E-1,1.5718966E0,1.0916147E0,1.8418915E0,1.4686033E0,0E0,8.009418E-1,0E0,0E0,0E0,0E0,0E0,0E0],"parents":[2147483647,0,0,1,1,2,2,3,3,4,4,6,6],"right_children":[2,4,6,8,10,-1,12,-1,-1,-1,-1,-1,-1],"split_conditions":[-3.819429E-1,-2.1748324E-1,-2.4126238E-1,-4.987692E-1,1.5500178E0,6.7039125E-2,1.0620245E0,-1.5054039E-2,9.441697E-2,-5.8222033E-2,3.2385554E-2,-6.527575E-3,4.009409E-2],"split_indices":[1,3,1,3,3,0,3,0,0,0,0,0,0],"split_type":[0,0,0,0,0,0,0,0,0,0,0,0,0],"sum_hessian":[3.4084473E1,1.4026143E1,2.0058329E1,5.145974E0,8.880169E0,2.515628E0,1.75427E1,3.7875316E0,1.3584425E0,7.297418E0,1.582751E0,1.3588096E1,3.9546053E0],"tree_param":{"num_deleted":"0","num_feature":"4","num_nodes":"13","size_leaf_vector":"1"}},{"base_weights":[2.3085592E-2,-1.6932078E-1,2.6727605E-1,1.2239015E-2,-8.0858284E-1,5.476382E-1,-5.6077965E-2,-6.5737054E-2,1.2966114E-2,-9.21696E-2,-2.3654332E-2,-5.2291837E-2,7.772011E-2,-7.450425E-2,2.6704168E-2],"categories":[],"categories_nodes":[],"categories_segments":[],"categories_sizes":[],"default_left":[0,0,0,0,0,0,0,0,0,0,0,0,0,0,0],"id":82,"left_children":[1,3,5,7,9,11,13,-1,-1,-1,-1,-1,-1,-1,-1],"loss_changes":[1.6793703E0,2.3387263E0,1.4554085E0,1.3913755E0,7.0120335E-2,2.4978669E0,2.0255926E0,0E0,0E0,0E0,0E0,0E0,0E0,0E0,0E0],"parents":[2147483647,0,0,1,1,2,2,3,3,4,4,5,5,6,6],"right_children":[2,4,6,8,10,12,14,-1,-1,-1,-1,-1,-1,-1,-1],"split_conditions":[-9.465555E-2,-2.5939888E-1,2.1411897E-1,-1.0227367E0,6.892279E-1,-1.4425629E0,4.895146E-1,-6.5737054E-2,1.2966114E-2,-9.21696E-2,-2.3654332E-2,-5.2291837E-2,7.772011E-2,-7.450425E-2,2.6704168E-2],"split_indices":[1,1,2,1,2,2,2,0,0,0,0,0,0,0,0],"split_type":[0,0,0,0,0,0,0,0,0,0,0,0,0,0,0],"sum_hessian":[3.3780388E1,1.9064999E1,1.4715389E1,1.5611856E1,3.4531417E0,7.510145E0,7.2052445E0,1.643173E0,1.3968684E1,2.3727226E0,1.0804192E0,1.1004337E0,6.4097114E0,1.8834729E0,5.3217716E0],"tree_param":{"num_deleted":"0","num_feature":"4","num_nodes":"15","size_leaf_vector":"1"}},{"base_weights":[-6.3415155E-2,-1.432183E-1,3.580564E-1,1.2558581E-1,-2.7699843E-1,7.298912E-2,-1.1677119E-1,-1.5346569E-2,8.299506E-2,-6.248915E-2,-1.5371166E-2,-4.4801798E-2,3.450832E-2],"categories":[],"categories_nodes":[],"categories_segments":[],"categories_sizes":[],"default_left":[0,0,0,0,0,0,0,0,0,0,0,0,0],"id":83,"left_children":[1,3,5,7,9,-1,11,-1,-1,-1,-1,-1,-1],"loss_changes":[1.2451584E0,1.1337008E0,1.1333787E0,2.2585733E0,7.924665E-1,0E0,6.85363E-1,0E0,0E0,0E0,0E0,0E0,0E0],"parents":[2147483647,0,0,1,1,2,2,3,3,4,4,6,6],"right_children":[2,4,6,8,10,-1,12,-1,-1,-1,-1,-1,-1],"split_conditions":[1.027397E0,-6.515777E-1,1.4062935E0,-7.513118E-1,-3.8953054E-1,7.298912E-2,2.0541801E0,-1.5346569E-2,8.299506E-2,-6.248915E-2,-1.5371166E-2,-4.4801798E-2,3.450832E-2],"split_indices":[0,0,0,0,0,0,0,0,0,0,0,0,0],"split_type":[0,0,0,0,0,0,0,0,0,0,0,0,0],"sum_hessian":[3.4495373E1,2.9558786E1,4.936587E0,9.842842E0,1.9715946E1,2.4672928E0,2.469294E0,7.610053E0,2.2327888E0,4.0942135E0,1.5621732E1,1.4554143E0,1.0138798E0],"tree_param":{"num_deleted":"0","num_feature":"4","num_nodes":"13","size_leaf_vector":"1"}},{"base_weights":[7.961104E-2,1.550381E-1,-5.701185E-1,-7.626723E-2,2.9288977E-1,-7.105175E-2,-1.19579295E-2,2.020276E-2,-2.7430737E-2,1.4368533E-2,7.1097344E-2],"categories":[],"categories_nodes":[],"categories_segments":[],"categories_sizes":[],"default_left":[0,0,0,0,0,0,0,0,0,0,0],"id":84,"left_children":[1,3,5,7,9,-1,-1,-1,-1,-1,-1],"loss_changes":[1.797179E0,1.0435622E0,1.5797532E-1,7.582925E-1,1.162554E0,0E0,0E0,0E0,0E0,0E0,0E0],"parents":[2147483647,0,0,1,1,2,2,3,3,4,4],"right_children":[2,4,6,8,10,-1,-1,-1,-1,-1,-1],"split_conditions":[1.2149998E0,-5.732749E-1,3.295787E-2,-3.7736583E-1,1.6956548E-1,-7.105175E-2,-1.19579295E-2,2.020276E-2,-2.7430737E-2,1.4368533E-2,7.1097344E-2],"split_indices":[2,2,1,1,1,0,0,0,0,0,0],"split_type":[0,0,0,0,0,0,0,0,0,0,0],"sum_hessian":[3.3868134E1,3.1027529E1,2.8406034E0,1.1753214E1,1.9274315E1,1.7257725E0,1.1148307E0,4.8781233E0,6.8750906E0,1.5195182E1,4.079134E0],"tree_param":{"num_deleted":"0","num_feature":"4","num_nodes":"11","size_leaf_vector":"1"}},{"base_weights":[-5.5138033E-2,-9.31445E-2,5.468669E-2,9.813243E-2,-2.6606554E-1,4.1254804E-2,-1.7515516E-2,-5.9152413E-2,-2.092075E-3],"categories":[],"categories_nodes":[],"categories_segments":[],"categories_sizes":[],"default_left":[0,0,0,0,0,0,0,0,0],"id":85,"left_children":[1,3,-1,5,7,-1,-1,-1,-1],"loss_changes":[8.2356536E-1,1.1049672E0,0E0,1.4657575E0,1.3758982E0,0E0,0E0,0E0,0E0],"parents":[2147483647,0,0,1,1,3,3,4,4],"right_children":[2,4,-1,6,8,-1,-1,-1,-1],"split_conditions":[5.7844555E-1,-2.5939888E-1,5.468669E-2,-4.2378297E-1,1.5944874E-2,4.1254804E-2,-1.7515516E-2,-5.9152413E-2,-2.092075E-3],"split_indices":[1,1,0,2,1,0,0,0,0],"split_type":[0,0,0,0,0,0,0,0,0],"sum_hessian":[3.276858E1,3.1617731E1,1.1508507E0,1.5217437E1,1.6400295E1,6.839296E0,8.37814E0,6.4389157E0,9.961379E0],"tree_param":{"num_deleted":"0","num_feature":"4","num_nodes":"9","size_leaf_vector":"1"}},{"base_weights":[-4.5613337E-2,9.202687E-3,-5.3808206E-1,-9.8101355E-2,2.3331301E-1,-7.511299E-2,-3.776778E-3,4.6917554E-2,-1.6206076E-2,8.0483265E-2,-1.785811E-3],"categories":[],"categories_nodes":[],"categories_segments":[],"categories_sizes":[],"default_left":[0,0,0,0,0,0,0,0,0,0,0],"id":86,"left_children":[1,3,5,7,9,-1,-1,-1,-1,-1,-1],"loss_changes":[9.7120535E-1,8.210796E-1,3.5556102E-1,9.1594267E-1,1.5995405E0,0E0,0E0,0E0,0E0,0E0,0E0],"parents":[2147483647,0,0,1,1,2,2,3,3,4,4],"right_children":[2,4,6,8,10,-1,-1,-1,-1,-1,-1],"split_conditions":[1.1932544E0,8.903095E-1,1.4623462E0,-1.4129996E0,1.0911424E0,-7.511299E-2,-3.776778E-3,4.6917554E-2,-1.6206076E-2,8.0483265E-2,-1.785811E-3],"split_indices":[2,3,2,2,3,0,0,0,0,0,0],"split_type":[0,0,0,0,0,0,0,0,0,0,0],"sum_hessian":[3.479356E1,3.2191666E1,2.6018972E0,2.2148989E1,1.0042675E1,1.4732358E0,1.1286615E0,1.6022846E0,2.0546705E1,2.3930843E0,7.649591E0],"tree_param":{"num_deleted":"0","num_feature":"4","num_nodes":"11","size_leaf_vector":"1"}},{"base_weights":[-5.896404E-3,-4.4913593E-1,6.6362806E-2,-1.5760124E-2,-5.1843416E-2,2.2435017E-1,-1.0845014E-1,3.977364E-2,-2.7736505E-2,7.3221974E-2,-2.5613666E-2],"categories":[],"categories_nodes":[],"categories_segments":[],"categories_sizes":[],"default_left":[0,0,0,0,0,0,0,0,0,0,0],"id":87,"left_children":[1,3,5,-1,-1,7,9,-1,-1,-1,-1],"loss_changes":[1.1879982E0,2.3301363E-2,9.071219E-1,0E0,0E0,1.5992403E0,2.155185E0,0E0,0E0,0E0,0E0],"parents":[2147483647,0,0,1,1,2,2,5,5,6,6],"right_children":[2,4,6,-1,-1,8,10,-1,-1,-1,-1],"split_conditions":[-1.1454606E0,-6.5902364E-1,2.1411897E-1,-1.5760124E-2,-5.1843416E-2,5.270829E-1,-1.099274E0,3.977364E-2,-2.7736505E-2,7.3221974E-2,-2.5613666E-2],"split_indices":[2,0,2,0,0,0,0,0,0,0,0],"split_type":[0,0,0,0,0,0,0,0,0,0,0],"sum_hessian":[3.5161713E1,4.197645E0,3.0964067E1,1.4349822E0,2.762663E0,1.611592E1,1.4848149E1,1.2130889E1,3.9850292E0,1.6272856E0,1.3220863E1],"tree_param":{"num_deleted":"0","num_feature":"4","num_nodes":"11","size_leaf_vector":"1"}},{"base_weights":[-4.485575E-2,-7.050736E-2,1.8581202E-2,-3.776763E-1,9.42869E-2,1.4427933E-2,-6.2829375E-2,-7.333892E-3,3.163575E-2],"categories":[],"categories_nodes":[],"categories_segments":[],"categories_sizes":[],"default_left":[0,0,0,0,0,0,0,0,0],"id":88,"left_children":[1,-1,3,5,7,-1,-1,-1,-1],"loss_changes":[1.4164513E0,0E0,9.8189986E-1,7.7866924E-1,1.0388591E0,0E0,0E0,0E0,0E0],"parents":[2147483647,0,0,2,2,3,3,4,4],"right_children":[2,-1,4,6,8,-1,-1,-1,-1],"split_conditions":[-1.4237353E0,-7.050736E-2,-7.4896604E-1,-1.0154481E0,4.0628117E-1,1.4427933E-2,-6.2829375E-2,-7.333892E-3,3.163575E-2],"split_indices":[2,0,1,1,2,0,0,0,0],"split_type":[0,0,0,0,0,0,0,0,0],"sum_hessian":[3.2507072E1,1.9629704E0,3.0544102E1,4.259637E0,2.6284466E1,1.5194387E0,2.7401981E0,1.5360004E1,1.092446E1],"tree_param":{"num_deleted":"0","num_feature":"4","num_nodes":"9","size_leaf_vector":"1"}},{"base_weights":[7.8358255E-2,-7.855004E-2,2.8600502E-1,1.6199249E-1,-3.704322E-1,1.0521312E-1,8.935338E-2,3.0187989E-2,-6.0440686E-2,-4.839104E-2,2.662598E-2,2.7640348E-2,-3.8638156E-2],"categories":[],"categories_nodes":[],"categories_segments":[],"categories_sizes":[],"default_left":[0,0,0,0,0,0,0,0,0,0,0,0,0],"id":89,"left_children":[1,3,5,7,9,11,-1,-1,-1,-1,-1,-1,-1],"loss_changes":[1.1678046E0,1.5208923E0,1.591504E0,1.4799733E0,8.300195E-1,1.1974472E0,0E0,0E0,0E0,0E0,0E0,0E0,0E0],"parents":[2147483647,0,0,1,1,2,2,3,3,4,4,5,5],"right_children":[2,4,6,8,10,12,-1,-1,-1,-1,-1,-1,-1],"split_conditions":[-9.465555E-2,-4.9865115E-1,1.0620245E0,1.0578008E0,1.1132436E0,4.0399653E-1,8.935338E-2,3.0187989E-2,-6.0440686E-2,-4.839104E-2,2.662598E-2,2.7640348E-2,-3.8638156E-2],"split_indices":[1,1,3,2,2,3,0,0,0,0,0,0,0],"split_type":[0,0,0,0,0,0,0,0,0,0,0,0,0],"sum_hessian":[3.4153046E1,1.9807339E1,1.4345705E1,1.11026E1,8.704739E0,1.1959816E1,2.3858883E0,9.901442E0,1.201159E0,7.5916367E0,1.1131022E0,9.195399E0,2.764417E0],"tree_param":{"num_deleted":"0","num_feature":"4","num_nodes":"13","size_leaf_vector":"1"}},{"base_weights":[-5.683484E-3,5.3607196E-1,-8.370758E-2,9.175859E-3,7.846245E-2,-3.6172324E-1,1.0857536E-1,-5.0196227E-2,3.5749327E-2,4.879012E-2,-1.785654E-3],"categories":[],"categories_nodes":[],"categories_segments":[],"categories_sizes":[],"default_left":[0,0,0,0,0,0,0,0,0,0,0],"id":90,"left_children":[1,3,5,-1,-1,7,9,-1,-1,-1,-1],"loss_changes":[1.4393796E0,4.015758E-1,1.6270864E0,0E0,0E0,1.4275886E0,8.8767993E-1,0E0,0E0,0E0,0E0],"parents":[2147483647,0,0,1,1,2,2,5,5,6,6],"right_children":[2,4,6,-1,-1,8,10,-1,-1,-1,-1],"split_conditions":[-1.4106259E0,-1.5549775E0,-1.0246256E-2,9.175859E-3,7.846245E-2,4.6778968E-1,4.7290778E-1,-5.0196227E-2,3.5749327E-2,4.879012E-2,-1.785654E-3],"split_indices":[3,3,3,0,0,1,3,0,0,0,0],"split_type":[0,0,0,0,0,0,0,0,0,0,0],"sum_hessian":[3.1990467E1,3.2882323E0,2.8702234E1,1.6707555E0,1.6174769E0,1.1374709E1,1.7327526E1,9.771457E0,1.6032519E0,3.616915E0,1.371061E1],"tree_param":{"num_deleted":"0","num_feature":"4","num_nodes":"11","size_leaf_vector":"1"}},{"base_weights":[-8.058199E-2,-1.18064344E-1,5.3779114E-2,4.7651943E-2,-1.5246011E-1,-6.003176E-2,-1.0465181E-2],"categories":[],"categories_nodes":[],"categories_segments":[],"categories_sizes":[],"default_left":[0,0,0,0,0,0,0],"id":91,"left_children":[1,3,-1,-1,5,-1,-1],"loss_changes":[8.47453E-1,7.416133E-1,0E0,0E0,6.1546683E-1,0E0,0E0],"parents":[2147483647,0,0,1,1,4,4],"right_children":[2,4,-1,-1,6,-1,-1],"split_conditions":[5.7844555E-1,-1.8472542E0,5.3779114E-2,4.7651943E-2,-1.3750756E0,-6.003176E-2,-1.0465181E-2],"split_indices":[1,0,0,0,0,0,0],"split_type":[0,0,0,0,0,0,0],"sum_hessian":[3.2823296E1,3.171027E1,1.1130282E0,1.0311553E0,3.0679113E1,1.8444022E0,2.8834711E1],"tree_param":{"num_deleted":"0","num_feature":"4","num_nodes":"7","size_leaf_vector":"1"}},{"base_weights":[-1.7447684E-2,1.6908301E-1,-2.0450297E-1,-5.014322E-2,2.511193E-1,3.9809915E-1,-3.195945E-1,4.405874E-3,5.9205133E-2,6.7426995E-3,5.6324262E-2,-4.9105033E-2,1.4626033E-2],"categories":[],"categories_nodes":[],"categories_segments":[],"categories_sizes":[],"default_left":[0,0,0,0,0,0,0,0,0,0,0,0,0],"id":92,"left_children":[1,3,5,-1,7,9,11,-1,-1,-1,-1,-1,-1],"loss_changes":[1.2328098E0,1.1018629E0,1.3478184E0,0E0,1.1369104E0,1.4045948E-1,1.296418E0,0E0,0E0,0E0,0E0,0E0,0E0],"parents":[2147483647,0,0,1,1,2,2,4,4,5,5,6,6],"right_children":[2,4,6,-1,8,10,12,-1,-1,-1,-1,-1,-1],"split_conditions":[-6.444673E-2,-1.099274E0,-1.099274E0,-5.014322E-2,-5.732749E-1,9.8219645E-1,8.6549443E-1,4.405874E-3,5.9205133E-2,6.7426995E-3,5.6324262E-2,-4.9105033E-2,1.4626033E-2],"split_indices":[2,0,0,0,2,2,0,0,0,0,0,0,0],"split_type":[0,0,0,0,0,0,0,0,0,0,0,0,0],"sum_hessian":[3.33416E1,1.6742315E1,1.6599283E1,1.2677951E0,1.5474521E1,2.2675827E0,1.43317E1,1.0329977E1,5.144543E0,1.22434E0,1.0432426E0,1.0436506E1,3.8951943E0],"tree_param":{"num_deleted":"0","num_feature":"4","num_nodes":"13","size_leaf_vector":"1"}},{"base_weights":[-1.2657392E-1,-6.720509E-2,-7.283278E-2,3.8722983E-1,-1.4876367E-1,-1.2985586E-2,9.596243E-2,-8.108773E-2,-8.189194E-3],"categories":[],"categories_nodes":[],"categories_segments":[],"categories_sizes":[],"default_left":[0,0,0,0,0,0,0,0,0],"id":93,"left_children":[1,-1,3,5,7,-1,-1,-1,-1],"loss_changes":[8.981388E-1,0E0,1.1241695E0,1.4869325E0,1.1259198E0,0E0,0E0,0E0,0E0],"parents":[2147483647,0,0,2,2,3,3,4,4],"right_children":[2,-1,4,6,8,-1,-1,-1,-1],"split_conditions":[-1.4237353E0,-6.720509E-2,-1.0109255E0,-1.1000717E0,-8.786209E-1,-1.2985586E-2,9.596243E-2,-8.108773E-2,-8.189194E-3],"split_indices":[2,0,2,2,2,0,0,0,0],"split_type":[0,0,0,0,0,0,0,0,0],"sum_hessian":[3.130771E1,1.7759855E0,2.9531727E1,3.6027894E0,2.5928936E1,2.299037E0,1.3037523E0,1.3579252E0,2.457101E1],"tree_param":{"num_deleted":"0","num_feature":"4","num_nodes":"9","size_leaf_vector":"1"}},{"base_weights":[5.88525E-2,-5.5772956E-2,9.6262306E-2,3.6569396E-1,-2.4410715E-2,6.679588E-2,-2.9592821E-2,2.779279E-2,-3.9574012E-2],"categories":[],"categories_nodes":[],"categories_segments":[],"categories_sizes":[],"default_left":[0,0,0,0,0,0,0,0,0],"id":94,"left_children":[1,-1,3,5,7,-1,-1,-1,-1],"loss_changes":[8.495207E-1,0E0,1.0942572E0,2.275228E0,2.803583E0,0E0,0E0,0E0,0E0],"parents":[2147483647,0,0,2,2,3,3,4,4],"right_children":[2,-1,4,6,8,-1,-1,-1,-1],"split_conditions":[-1.1102037E0,-5.5772956E-2,-4.9865115E-1,4.445148E-1,2.9016307E-1,6.679588E-2,-2.9592821E-2,2.779279E-2,-3.9574012E-2],"split_indices":[1,0,1,0,3,0,0,0,0],"split_type":[0,0,0,0,0,0,0,0,0],"sum_hessian":[3.350208E1,1.1207886E0,3.238129E1,9.388576E0,2.2992716E1,6.4378433E0,2.9507325E0,1.2812353E1,1.0180362E1],"tree_param":{"num_deleted":"0","num_feature":"4","num_nodes":"9","size_leaf_vector":"1"}},{"base_weights":[9.598666E-2,1.5096405E-1,-5.170081E-2,5.025367E-2,5.7967806E-1,1.59438E-2,-6.5962605E-2,1.1333857E-1,9.757063E-3],"categories":[],"categories_nodes":[],"categories_segments":[],"categories_sizes":[],"default_left":[0,0,0,0,0,0,0,0,0],"id":95,"left_children":[1,3,-1,5,7,-1,-1,-1,-1],"loss_changes":[1.1857667E0,1.3066387E0,0E0,2.1318069E0,1.435105E0,0E0,0E0,0E0,0E0],"parents":[2147483647,0,0,1,1,3,3,4,4],"right_children":[2,4,-1,6,8,-1,-1,-1,-1],"split_conditions":[1.4062935E0,7.022873E-1,-5.170081E-2,4.755545E-1,-7.901751E-1,1.59438E-2,-6.5962605E-2,1.1333857E-1,9.757063E-3],"split_indices":[0,0,0,0,3,0,0,0,0],"split_type":[0,0,0,0,0,0,0,0,0],"sum_hessian":[3.1869104E1,2.9937813E1,1.9312927E0,2.514755E1,4.7902613E0,2.2467325E1,2.6802254E0,1.6008091E0,3.189452E0],"tree_param":{"num_deleted":"0","num_feature":"4","num_nodes":"9","size_leaf_vector":"1"}},{"base_weights":[-6.36542E-2,-1.6691657E-2,-5.125903E-1,-6.5410145E-2,5.953763E-2,-8.245128E-2,8.038148E-3,-1.9020269E-2,1.1026569E-2],"categories":[],"categories_nodes":[],"categories_segments":[],"categories_sizes":[],"default_left":[0,0,0,0,0,0,0,0,0],"id":96,"left_children":[1,3,5,7,-1,-1,-1,-1,-1],"loss_changes":[7.0611435E-1,9.848372E-1,6.5380734E-1,6.848771E-1,0E0,0E0,0E0,0E0,0E0],"parents":[2147483647,0,0,1,1,2,2,3,3],"right_children":[2,4,6,8,-1,-1,-1,-1,-1],"split_conditions":[1.4062935E0,1.229043E0,1.7674234E0,-9.465555E-2,5.953763E-2,-8.245128E-2,8.038148E-3,-1.9020269E-2,1.1026569E-2],"split_indices":[0,0,0,1,0,0,0,0,0],"split_type":[0,0,0,0,0,0,0,0,0],"sum_hessian":[3.289765E1,3.072114E1,2.176513E0,2.9283415E1,1.4377259E0,1.1703796E0,1.0061334E0,1.7072884E1,1.2210531E1],"tree_param":{"num_deleted":"0","num_feature":"4","num_nodes":"9","size_leaf_vector":"1"}},{"base_weights":[-5.223355E-2,-9.239821E-2,5.6603845E-2,-1.7083636E-1,1.8640196E-1,-4.0384624E-3,-5.2916832E-2,-5.856215E-2,3.986874E-2],"categories":[],"categories_nodes":[],"categories_segments":[],"categories_sizes":[],"default_left":[0,0,0,0,0,0,0,0,0],"id":97,"left_children":[1,3,-1,5,7,-1,-1,-1,-1],"loss_changes":[9.085347E-1,7.586789E-1,0E0,1.2155312E0,1.5078651E0,0E0,0E0,0E0,0E0],"parents":[2147483647,0,0,1,1,3,3,4,4],"right_children":[2,4,-1,6,8,-1,-1,-1,-1],"split_conditions":[5.7844555E-1,8.2928455E-1,5.6603845E-2,2.0343742E-1,-7.432873E-1,-4.0384624E-3,-5.2916832E-2,-5.856215E-2,3.986874E-2],"split_indices":[1,2,0,2,1,0,0,0,0],"split_type":[0,0,0,0,0,0,0,0,0],"sum_hessian":[3.3480114E1,3.2236496E1,1.243618E0,2.5460608E1,6.7758894E0,1.9481144E1,5.979463E0,1.0820652E0,5.6938243E0],"tree_param":{"num_deleted":"0","num_feature":"4","num_nodes":"9",